{"layers": [{"w": [[-0.11008290946483612, 0.14558179676532745, -0.039076678454875946, 0.16994063556194305, 0.012016826309263706, 0.04035532847046852, 0.22879646718502045, -0.037191037088632584, -0.00808339286595583, 0.07165687531232834, 0.012455969117581844, 0.03549674525856972, -0.057108912616968155, 0.0656091496348381, 0.11341605335474014, 0.03299808129668236, 0.019736915826797485, 0.04764929041266441, -0.11646334826946259, -0.06344131380319595, 0.045136958360672, -0.0967690721154213, -0.008610253222286701, 0.013685949146747589, -0.10043219476938248, -0.04515393078327179, -0.01610943302512169, -0.004976821597665548, -0.09672318398952484, 0.019571542739868164, -0.06546201556921005, 0.140646830201149, 0.1751481294631958, 0.05588570982217789, 0.0933711975812912, 0.1890941858291626, -0.11027664691209793, 0.06680792570114136, 0.018397346138954163, 0.06009937822818756, 0.06692700833082199, -0.12201996147632599, -0.04461653158068657, -0.11106523871421814, 0.16478446125984192, -0.006706977728754282, 0.14661532640457153, 0.16038359701633453, 0.14981339871883392, 0.04081575945019722, -0.08305707573890686, -0.04258251562714577, -0.014128019101917744, -0.09116397798061371, 0.06862340867519379, -0.0240730419754982, -0.22617463767528534, -0.3303697407245636, -0.11604755371809006, 0.0816352590918541, 0.13366293907165527, 0.23244599997997284, -0.08816085010766983, -0.03556551784276962, 0.09518995136022568, -0.1714254468679428, -0.008026983588933945, -0.06073233485221863, 3.654397005448118e-05, 0.014994966797530651, 0.015390266664326191, 0.11847910284996033, 0.11458688974380493, 0.18045033514499664, 0.14043109118938446, -0.1317499876022339, 0.008731186389923096, 0.05787583440542221, -0.22872167825698853, -0.11872167885303497, 0.07860907912254333, -0.2272438257932663, 0.0011332167778164148, 0.08122427761554718, 0.03559254854917526, -0.015432975254952908, -0.01820702850818634, 0.0398595966398716, -0.13639111816883087, 0.08705469220876694, 0.13149334490299225, -0.21429908275604248, 0.03216703236103058, 0.13502191007137299, 0.04096677154302597, 0.001063250470906496, -0.14122706651687622, -0.10942573100328445, -0.056771937757730484, -0.12209080904722214, -0.07688719779253006, -0.004254965111613274, -0.014952141791582108, 0.015296471305191517, -0.1901790350675583, 0.06796589493751526, -0.17456015944480896, 0.002030610805377364, -0.04793953523039818, -0.06466971337795258, 0.03751986846327782, 0.10235167294740677, 0.04310156777501106, -0.03795323148369789, -0.039795175194740295, 0.05123954638838768, 0.1042560487985611, 0.21362918615341187, -0.11407957226037979, -0.45464232563972473, -0.3072003126144409, -0.1730603724718094, 0.0040502166375517845, 0.19798389077186584, 0.01576906442642212, 0.16617485880851746, 0.03732870891690254, 0.08956348150968552, 0.023436617106199265, -0.008604790084064007, -0.0602775514125824, -0.011138156987726688, 0.08491825312376022, -0.20124687254428864, 0.1367790400981903, 0.21866704523563385, -0.020017025992274284, -0.10295743495225906, -0.06377176940441132, -0.0754639208316803, 0.06875326484441757, 0.024734390899538994, -0.15878698229789734, 0.10635032504796982, 0.02724955417215824, 0.2535760700702667, 0.11787142604589462, 0.1275438815355301, 0.04250071197748184, -0.0336446650326252, -0.01124097965657711, -0.09644350409507751, -0.08210108429193497, -0.20578491687774658, -0.04547472670674324, 0.12037154287099838, 0.07949110865592957, 0.09548307210206985, 0.031052619218826294, 0.006672754418104887, 0.04054480418562889, -0.08692148327827454, -0.03705454245209694, 0.10669767111539841, 0.0034860556479543447, -0.03929748386144638, -0.23759888112545013, -0.011397943831980228, 0.055545516312122345, -0.12468449026346207, 0.06584259867668152, -0.2225356251001358, 0.2392786145210266, -0.15747077763080597, 0.015188448131084442, -0.039402224123477936, -0.03747208043932915, 0.045224856585264206, 0.15999242663383484, 0.04405314102768898, 0.1296893060207367, -0.042532194405794144, -0.24573293328285217, -0.21941730380058289, -0.2581407129764557, -0.029599718749523163, 0.043168213218450546, 0.1839793473482132, -0.009450587444007397, -0.1774364709854126, 0.09518123418092728, 0.008566117845475674, 0.09529837220907211, 0.010476348921656609, -0.0030697474721819162, 0.09757643938064575, -0.045005057007074356, -0.08639933168888092, 0.07263526320457458, 0.21849922835826874, -0.007145583629608154, 0.059709977358579636, -0.02062971144914627, 0.05258037522435188, 0.017359130084514618, -0.11680948734283447, 0.14420285820960999, -0.05958320572972298, 0.1400194615125656, 0.18231859803199768, 0.017054105177521706, 0.13433009386062622, -0.1372217983007431, 0.044125035405159, -0.08783908933401108, -0.11167602241039276, -0.11090307682752609, 0.05768386274576187, -0.12663894891738892, 0.06173726171255112, 0.00026164011796936393, -0.0252910815179348, -0.15453539788722992, 0.07018645852804184, -0.038774121552705765, -0.1831420361995697, -0.18777398765087128, 0.050666503608226776, -0.009660105220973492, -0.12420981377363205, -0.07670632004737854, 0.05035460367798805, -0.1650714874267578, 0.036061204969882965, -0.4896399676799774, -0.004600098822265863, -0.02891254425048828, 0.02628317102789879, 0.08595718443393707, -0.12402670830488205, -0.02979608252644539, 0.01931598223745823, -0.06675485521554947, 0.164583221077919, 0.059907566756010056, -0.35973048210144043, -0.07199911028146744, 0.026978937909007072, 0.07510755956172943, 0.0320499986410141, 0.19509220123291016, 0.09400159120559692], [0.14007332921028137, 0.004919849336147308, 0.16109329462051392, -0.03398029878735542, -0.03001345321536064, -0.1457168161869049, -0.1210331842303276, 0.05810928717255592, -0.025452425703406334, -0.02197839878499508, -0.1156693622469902, -0.21199150383472443, -0.021775519475340843, 0.012312580831348896, 0.020336778834462166, -0.0886979028582573, -0.2531201243400574, 0.033212266862392426, -0.14418925344944, -0.05122116953134537, -0.13996504247188568, -0.16758044064044952, -0.10236048698425293, -0.06949809193611145, -0.10775205492973328, -0.12150376290082932, -0.12728029489517212, 0.00252285017631948, 0.07185552269220352, -0.13054467737674713, -0.13405871391296387, 0.01782846450805664, -0.02165583148598671, -0.0534173846244812, -0.022701386362314224, 0.022684918716549873, 0.12819497287273407, -0.0789416953921318, 0.11562483757734299, -0.05867564678192139, 0.1858217865228653, 0.08227294683456421, -0.029344592243433, -0.035615473985672, 0.09363595396280289, 0.1094997301697731, 0.1882489025592804, 0.06693276017904282, 0.06035417690873146, -0.09710054099559784, 0.005740519613027573, -0.06985267996788025, 0.06881491094827652, -0.15932266414165497, -0.017107727006077766, -0.24138355255126953, -0.22129902243614197, -0.27597010135650635, -0.4320732057094574, -0.09923675656318665, -0.1474209725856781, -0.06841401755809784, -0.02432299219071865, 0.04081863909959793, 0.22058287262916565, -0.02259008400142193, 0.05376294255256653, 0.05596353858709335, -0.0604962557554245, 0.19443784654140472, -0.0022296682000160217, 0.15674808621406555, -0.13055972754955292, -0.2370832860469818, -0.0049249823205173016, -0.026920871809124947, -0.15931296348571777, -0.07073327898979187, -0.205762580037117, -0.16415494680404663, -0.040076084434986115, -0.024234669283032417, -0.05583746358752251, 0.027724945917725563, 0.09832239151000977, 0.16988731920719147, -0.0020026378333568573, -0.019350877031683922, -0.07222751528024673, -0.08476803451776505, -0.0004502778174355626, -0.09499038010835648, -0.028074298053979874, 0.08685160428285599, -0.16222333908081055, -0.0025375625118613243, 0.039087727665901184, 0.19757820665836334, 0.06587536633014679, -0.02391810156404972, 0.06333936005830765, 0.14526885747909546, -0.09043204039335251, -0.04473232477903366, -0.06371787935495377, -0.011588742956519127, 0.1909399926662445, -0.040470659732818604, 0.0502479150891304, 0.0977555587887764, 0.07166238129138947, 0.011055674403905869, -0.09577295184135437, 0.009003382176160812, 0.07686392962932587, 0.004330514930188656, 0.07771365344524384, 0.07028860598802567, -0.3728460371494293, -0.2636122405529022, -0.09630779922008514, -0.31489789485931396, -0.12803271412849426, -0.23305799067020416, -0.19071106612682343, -0.017273565754294395, -0.02908770926296711, -0.10318755358457565, 0.14149436354637146, 0.14502224326133728, -0.11584042757749557, -0.01570698991417885, -0.09831316024065018, -0.1340307593345642, 0.016591981053352356, -0.14288891851902008, -0.36240771412849426, 0.02708401530981064, -0.12415491044521332, 0.08572567999362946, 0.013649382628500462, -0.2547238767147064, -0.12352091073989868, 0.03686348348855972, -0.0976327657699585, -0.009069139137864113, 0.06323691457509995, 0.1767846792936325, -0.057797014713287354, -0.12372329831123352, -0.1290142834186554, -0.02554631419479847, 0.055063702166080475, -0.00013637138181366026, 0.12035010755062103, 0.05830257013440132, 0.011907044798135757, 0.10396675020456314, 0.030420659109950066, 0.04306546226143837, 0.01065217237919569, 0.10173572599887848, 0.03824537992477417, 0.006370647344738245, 0.017038656398653984, 0.08823686093091965, 0.028937585651874542, -0.013499830849468708, 0.03269721940159798, -0.13365136086940765, -0.04359496757388115, -0.19495448470115662, -0.06723275035619736, 0.15414874255657196, -0.045321185141801834, 0.08959009498357773, -0.06172942742705345, -0.12451939284801483, 0.08448366075754166, 0.017487481236457825, -0.0960102528333664, -0.3342440724372864, -0.22458840906620026, -0.2792135775089264, -0.36668890714645386, -0.11057274043560028, -0.2585506737232208, -0.03606361523270607, 0.13166485726833344, -0.011409245431423187, 0.06282974034547806, 0.06264597177505493, 0.21723514795303345, 0.07626183331012726, 0.1142166256904602, -0.05824699625372887, -0.08942672610282898, 0.378314733505249, -0.09498686343431473, -0.5617331862449646, 0.019954513758420944, -0.05075506865978241, -0.15624681115150452, 0.1491696685552597, -0.062376298010349274, -0.1594606637954712, 0.1074790507555008, 0.09140941500663757, 0.03689585626125336, 0.2099631279706955, -0.0028448256198316813, -0.08710309118032455, -0.025138791650533676, 0.13685743510723114, -0.008155492134392262, 0.024180017411708832, 0.1893896758556366, 0.11936286836862564, -0.018804926425218582, -0.04380746930837631, -0.06269446760416031, 0.09367355704307556, -0.037070661783218384, -0.074692502617836, 0.13161002099514008, 0.022069834172725677, 0.08814579248428345, 0.0646093338727951, -0.14598481357097626, 0.045235324651002884, -0.018771493807435036, -0.20794998109340668, 0.048091672360897064, 0.19644257426261902, -0.15429985523223877, 0.10353204607963562, 0.13015881180763245, 0.03868165612220764, -0.01818254217505455, 0.009599465876817703, -0.02066006325185299, -0.17576202750205994, 0.11170157045125961, -0.2559606730937958, -0.3496639132499695, -0.29933175444602966, -0.34253811836242676, -0.2608218491077423, -0.21404720842838287, -0.11217259615659714, -0.11654265969991684, -0.0008188269566744566], [-0.00810373853892088, -0.14461283385753632, -0.02381768450140953, -0.017030926421284676, -0.1685386449098587, 0.05999712646007538, -0.11871630698442459, 0.0364687442779541, -0.036957837641239166, -0.24189236760139465, 0.4933507442474365, -0.08613515645265579, -0.25735580921173096, -0.07679437100887299, -0.203754261136055, 0.1982799619436264, 0.2758430242538452, -0.12354014813899994, -0.006054683122783899, 0.05140301212668419, -0.030646638944745064, -0.049417346715927124, -0.05755244567990303, 0.012003200128674507, 0.026114707812666893, -0.1572275608778, 0.03933487832546234, 0.10793713480234146, -0.0734296590089798, -0.013486589305102825, -0.00384922930970788, -0.08906090259552002, -0.1878872662782669, 0.07273181527853012, -0.0961272120475769, -0.00906207412481308, 0.018188579007983208, -0.1958131492137909, 0.0014497308293357491, -0.13816526532173157, -0.05735894292593002, -0.04022618755698204, 0.1822717785835266, -0.42006438970565796, 0.13543352484703064, 0.05133933946490288, -0.033872008323669434, -0.23288197815418243, -0.001576495124027133, -0.06061161682009697, 0.1042066365480423, -0.03913956508040428, 0.04261156544089317, -0.07814910262823105, -0.013153166510164738, -0.07736233621835709, 0.07553669810295105, -0.10433187335729599, -0.03984446823596954, -0.046428754925727844, -0.07920975238084793, -0.07643292844295502, 0.016821663826704025, -0.2954697608947754, -0.13112811744213104, 0.00954342819750309, -0.19549712538719177, -0.014150620438158512, -0.012369812466204166, 0.2034844011068344, -0.05431065335869789, -0.1871187537908554, -0.2154327929019928, 0.4467097818851471, -0.012820873409509659, -0.2844419777393341, 0.31269124150276184, -0.20996429026126862, 0.0863061472773552, 0.19790583848953247, -0.10063566267490387, -0.03336525335907936, -0.011212768033146858, -0.12142600864171982, -0.03890470415353775, -0.13404498994350433, -0.17294536530971527, 0.023601019755005836, 0.018520185723900795, -0.030817098915576935, 0.05743204802274704, 0.04360892251133919, 0.13688191771507263, 0.016103141009807587, -0.01234468910843134, -0.043123509734869, 0.026985708624124527, 0.09478985518217087, -0.0199484433978796, -0.10516957938671112, 0.022315578535199165, 0.03820658102631569, -0.02247762680053711, 0.1603802889585495, -0.12883438169956207, 0.12629394233226776, -0.1630561798810959, 0.14403003454208374, 0.035823021084070206, -0.011206074617803097, -0.022508783265948296, 0.09941010922193527, -0.029116589576005936, -0.037888552993535995, -0.07379703223705292, 0.060153085738420486, -0.10532817989587784, -0.143913134932518, 0.14427442848682404, 0.012663416564464569, -0.1043562963604927, -0.1590075045824051, -0.054527297616004944, -0.10090074688196182, -0.012940503656864166, 0.021723367273807526, -0.123788021504879, 0.021251266822218895, 0.12723828852176666, -0.067903071641922, -0.18360179662704468, -0.048262402415275574, 0.10807770490646362, 0.06550169736146927, -0.05308794230222702, -0.12064105272293091, 0.22283343970775604, -0.05443579703569412, -0.1490674614906311, 0.12353337556123734, -0.3663920760154724, 0.12867698073387146, 0.10516192764043808, -0.12101451307535172, 0.020487023517489433, 0.05826831981539726, -0.11933359503746033, 0.005023793783038855, 0.0900145098567009, 0.039239563047885895, -0.1761455535888672, 0.080496646463871, -0.05578180402517319, 0.06155453249812126, -0.02328808419406414, -0.03384038060903549, -0.15775571763515472, -0.0023607234470546246, 0.07133238017559052, 0.08263780176639557, -0.0636456161737442, -0.03666761890053749, 0.040793225169181824, 0.15313462913036346, 0.09682857245206833, 0.24256910383701324, 0.012229527346789837, -0.10509141534566879, 0.08126141130924225, -0.3802318572998047, -0.01590137928724289, 0.08221641927957535, -0.07103206217288971, -0.06168673187494278, 0.057724449783563614, 0.026087159290909767, -0.036291029304265976, -0.04863759130239487, -0.029318949207663536, -0.051462993025779724, -0.2211819589138031, -0.009133188985288143, -0.06668572127819061, -0.08700991421937943, -0.2902539074420929, -0.17284731566905975, -0.1453227549791336, 0.1567583531141281, 0.02908460423350334, -0.33813726902008057, -0.31811004877090454, -0.020437851548194885, -0.35423743724823, -0.19075997173786163, 0.039669498801231384, -0.1221918910741806, -0.1628495752811432, 0.012127047404646873, -0.18457496166229248, 0.2000901997089386, -0.017848366871476173, -0.25898435711860657, 0.05694319307804108, -0.3179650604724884, 0.2475709170103073, 0.17970244586467743, -0.06737380474805832, -0.014565946534276009, 0.009561215527355671, 0.023858515545725822, -0.08134374022483826, 0.14994992315769196, -0.05679253488779068, -0.0648718923330307, 0.024038849398493767, 0.10485496371984482, -0.009764101356267929, -0.04306299611926079, 0.0645599365234375, -0.01353706605732441, -0.16021417081356049, -0.11812198907136917, -0.026354016736149788, -0.09038852900266647, -0.00943966768682003, -0.11313561350107193, -0.04582894966006279, -0.08531111478805542, 0.07272524386644363, -0.1416437029838562, 0.0853232890367508, 0.19014368951320648, -0.06995870918035507, 0.1677679717540741, 0.04920615255832672, -0.11408776789903641, -0.18147790431976318, 0.05601011961698532, 0.04784910008311272, -0.015215239487588406, -0.19467563927173615, 0.0052995989099144936, -0.06121474876999855, -0.016121894121170044, -0.15210731327533722, -0.12472248822450638, -0.21291913092136383, -0.1760348379611969, -0.07502558082342148, -0.029836969450116158, 0.11112929880619049, 0.15132170915603638], [0.11814010888338089, 0.0677388608455658, 0.0749686136841774, -0.020445505157113075, 0.0014144505839794874, 0.06837234646081924, -0.005622947122901678, -0.044173143804073334, 0.126485213637352, 0.13807684183120728, 0.3622548282146454, -0.1280960887670517, 0.012098636478185654, 0.035579804331064224, 0.07832417637109756, 0.02238035947084427, 0.12117279320955276, 0.044459614902734756, 0.04432131350040436, -0.13517038524150848, -0.02357032522559166, -0.03678658604621887, 0.06867633014917374, -0.009936897084116936, -0.10320740193128586, -0.03134734928607941, 0.04106852784752846, 0.014466837979853153, 0.12755458056926727, 0.022368788719177246, -0.014379800297319889, 0.01580091565847397, 0.07886810600757599, 0.12998275458812714, -0.029314417392015457, 0.024222981184720993, -0.11875350773334503, -0.10615427047014236, 0.06449791043996811, -0.10641807317733765, 0.023715797811746597, -0.06103729084134102, -0.14497259259223938, -0.04639987647533417, 0.13882163166999817, -0.05439288541674614, 0.01737508736550808, -0.09357122331857681, 0.01006552204489708, -0.017730358988046646, -0.020852843299508095, 0.019615868106484413, 0.07989122718572617, 0.10072872042655945, 0.004937902558594942, 0.049014799296855927, -0.09526707231998444, -0.36302056908607483, -0.3772452175617218, -0.4862254559993744, -0.23162062466144562, -0.1230536624789238, 0.028821561485528946, 0.041538089513778687, -0.08911404013633728, 0.25602439045906067, 0.011385153979063034, 0.024077581241726875, 0.19714941084384918, -0.014042537659406662, -0.08713394403457642, 0.0619908943772316, 0.06541554629802704, 0.0253459345549345, -0.06747143715620041, 0.17084187269210815, -0.07411342114210129, 0.15755239129066467, -0.007776706479489803, 0.0004424680082593113, -0.1866641640663147, -0.03692002221941948, -0.03259057551622391, -0.03801089897751808, 0.06577853113412857, 0.10040873289108276, -0.00403299555182457, -0.06819863617420197, -0.16190631687641144, -0.1571030169725418, 0.05357871577143669, 0.011355988681316376, 0.24519868195056915, 0.016256360337138176, 0.04168204218149185, -0.03801005333662033, 0.03745700418949127, -0.13239213824272156, -4.7192479541990906e-05, 0.0017375494353473186, -0.056093256920576096, -0.16709181666374207, 0.12259186059236526, -0.15785111486911774, -0.014289564453065395, 0.013065479695796967, -0.3230610191822052, -0.022403735667467117, -0.0015828419709578156, 0.14223980903625488, 0.12795694172382355, -0.041417717933654785, 0.0683654174208641, 0.019014352932572365, 0.08529456704854965, -0.020516324788331985, -0.07806146144866943, -0.04553197696805, -0.09833147376775742, -0.30745723843574524, -0.3479311764240265, -0.5273184180259705, -0.34429073333740234, -0.29293447732925415, -0.06378942728042603, -0.020384952425956726, -0.008580837398767471, -0.11563567817211151, 0.15058816969394684, -0.15125171840190887, -0.08254090696573257, 0.04385881870985031, 0.24643367528915405, -0.11679285019636154, 0.03690536692738533, 0.24882793426513672, -0.08367650955915451, -0.06696920841932297, 0.05117456614971161, 0.20979413390159607, 0.007844803854823112, 0.07374701648950577, -0.04809175804257393, 0.07824134081602097, 0.06699595600366592, -0.036973681300878525, -0.04345901682972908, -0.09732315689325333, -0.18031904101371765, 0.07419097423553467, -0.0010737146949395537, 0.008916017599403858, 0.06386183947324753, -0.09995262324810028, -0.036615040153265, -0.07802442461252213, -0.04529481753706932, -0.01766965165734291, 0.11277712881565094, -0.13343816995620728, 0.07733220607042313, -0.0021542806643992662, -0.061596136540174484, 0.07171793282032013, 0.12545455992221832, -0.09079184383153915, -0.0010501808719709516, 0.018699824810028076, 0.061729080975055695, 0.1569211184978485, 0.12252292037010193, -0.05633672699332237, 0.2508155405521393, -0.03601566702127457, 0.013603716157376766, 0.11540685594081879, -0.0006947045330889523, -0.12904977798461914, 0.04765934497117996, -0.002272383775562048, 0.019952312111854553, -0.135470911860466, -0.2215978503227234, -0.29011476039886475, -0.29126113653182983, -0.40660974383354187, -0.30007728934288025, -0.02474922314286232, -0.12629008293151855, -0.1157476082444191, 0.012872476130723953, 0.0963439866900444, -0.2378462553024292, 0.08933020383119583, 0.051303356885910034, -0.04430316016077995, -0.06051268428564072, 0.4861878454685211, 0.13839560747146606, -0.24317823350429535, 0.008441587910056114, -0.10521073639392853, 0.0189712755382061, 0.15154358744621277, 0.33328065276145935, -0.001982668414711952, 0.04436020180583, 0.024447603151202202, 0.12369700521230698, 0.09868420660495758, 0.06154179573059082, -0.02296791784465313, 0.14258195459842682, -0.03043176233768463, 0.11162132024765015, -0.03143499791622162, -0.0038835566956549883, -0.04235190525650978, -0.11928299069404602, 0.0016035155858844519, 0.07994130253791809, 0.010885304771363735, 0.1843739002943039, 0.06170576065778732, -0.09615983814001083, -0.009409120306372643, -0.10409680008888245, 0.03858961910009384, -0.10147088021039963, 0.08433984965085983, 0.03646097332239151, -0.026511257514357567, 0.06403624266386032, 0.19280412793159485, -0.11967401206493378, -0.14217263460159302, 0.043997783213853836, 0.02372058480978012, 0.06888874620199203, 0.2691413462162018, -0.12665574252605438, 0.003981952555477619, 0.13748961687088013, -0.056849926710128784, -0.16077516973018646, -0.30033522844314575, -0.4411522448062897, -0.3882594108581543, -0.4134466052055359, -0.2447306215763092, -0.057492148131132126, -0.21507762372493744], [-0.011487862095236778, 0.06741152703762054, 0.09411529451608658, -0.08592015504837036, 0.22519704699516296, -0.035621657967567444, -0.03113526664674282, 0.07613176852464676, 0.22290723025798798, 0.10521884262561798, 0.0196673646569252, -0.13422846794128418, 0.21089720726013184, 0.03289051726460457, 0.2603834867477417, -0.16330289840698242, -0.10941869765520096, 0.07553356140851974, -0.16803817451000214, -0.019451167434453964, 0.0019496070453897119, 0.03728079795837402, 0.052916351705789566, 0.07861950993537903, 0.08141408860683441, 0.05747874826192856, -0.03765012323856354, -0.1805044263601303, 0.27593913674354553, 0.12778517603874207, 0.17143362760543823, 0.13238264620304108, 0.06450562924146652, 0.005889290012419224, 0.008008204400539398, 0.10072401911020279, 0.009250006638467312, -0.14505518972873688, -0.1325286328792572, -0.05002661049365997, 0.0070761884562671185, -0.027317218482494354, -0.08253240585327148, 0.17110031843185425, 0.04212728887796402, -0.09354865550994873, 0.11870593577623367, -0.07684477418661118, 0.023099035024642944, 0.08983816206455231, -0.03413459286093712, -0.007045860402286053, 0.03840279206633568, 0.00986302550882101, -0.2820897102355957, -0.13984088599681854, -0.09264461696147919, 0.01024750154465437, 0.014387345872819424, -0.0443958081305027, -0.08057994395494461, -0.12083090841770172, -0.0640227347612381, 0.1891886442899704, 0.10961125046014786, 0.011945008300244808, -0.18671786785125732, 0.05492245405912399, -0.15765343606472015, -0.02184976637363434, -0.1412455439567566, -0.14196473360061646, 0.3066667914390564, 0.01965315081179142, 0.0041283778846263885, 0.04556122422218323, -0.02932513691484928, 0.15316066145896912, -0.054375577718019485, -0.17133677005767822, 0.002121441997587681, -0.0783933475613594, -0.04981062933802605, 0.07122514396905899, -0.026103058829903603, 0.010250070132315159, 0.01148760411888361, -0.03965349122881889, 0.22081288695335388, 0.0004917062469758093, -0.08561225980520248, -0.11255639046430588, 0.07996126264333725, 0.073942169547081, 0.10242504626512527, -0.01243292074650526, 0.06527265161275864, -0.011068684980273247, -0.09541839361190796, 0.06815733760595322, 0.1812276989221573, 0.1556829959154129, 0.02518608048558235, 0.00025552554870955646, -0.003028437029570341, 0.05598308891057968, 0.06954286247491837, -0.122780442237854, -0.05861461162567139, -0.1264994591474533, 0.04495278373360634, -0.019172899425029755, -0.038850076496601105, -0.08380560576915741, 0.02070593275129795, -0.11761356145143509, -0.09990415722131729, -0.1646099090576172, -0.06905791163444519, -0.025112874805927277, -0.20148628950119019, -0.017015628516674042, 0.10828814655542374, 0.0861157476902008, -0.11589817702770233, -0.11394333094358444, -0.12047132849693298, -0.017138047143816948, 0.04252774268388748, 0.011719758622348309, 0.10814081132411957, -0.04281902685761452, -0.059344854205846786, 0.025440847501158714, 0.08708718419075012, 0.18078292906284332, -0.10315883904695511, -0.11884327232837677, 0.2024175524711609, 0.057720232754945755, 0.32728707790374756, -0.32034093141555786, -0.13919663429260254, 0.08739800751209259, 0.033290669322013855, -0.04500950500369072, -0.15071022510528564, 0.0639115497469902, 0.08608803153038025, -0.006079519633203745, -0.007300591096282005, -0.11622903496026993, 0.03953256085515022, -0.09562837332487106, 0.0019861706532537937, 0.022122757509350777, -0.014676573686301708, 0.13856174051761627, 0.23092910647392273, -0.03376343101263046, -0.10910163074731827, -0.059097710996866226, -0.12676872313022614, -0.09302891790866852, -0.028512511402368546, -0.1089378148317337, -0.03180843964219093, -0.07033433765172958, -0.08386827260255814, 0.02107366919517517, -0.07882394641637802, -0.02153783105313778, 0.0205994825810194, 0.0313393697142601, 0.0016731196083128452, 0.03741766884922981, -0.06802120059728622, -0.172129288315773, 0.033704448491334915, -0.06385021656751633, -0.3444845378398895, -0.10959712415933609, -0.2030148208141327, 0.021431373432278633, -0.12576885521411896, 0.03918526694178581, -0.20112232863903046, -0.2276710569858551, 0.028437519446015358, 0.004205916076898575, -0.1259104311466217, 0.12088693678379059, 0.007383763324469328, 0.257709264755249, -0.040536440908908844, -0.05661439523100853, -0.11688318848609924, 0.3179096579551697, 0.21576017141342163, 0.34580570459365845, -0.01583794876933098, 0.17947205901145935, 0.13347142934799194, 0.1753944456577301, -0.17989499866962433, -0.16061685979366302, 0.057985663414001465, -0.06730115413665771, -0.0984463021159172, -0.046450093388557434, 0.06368058919906616, 0.022326573729515076, 0.054342955350875854, -0.10897200554609299, 0.041833676397800446, -0.036720696836709976, -0.08553338050842285, -0.15154694020748138, -0.061890859156847, 0.07129485160112381, 0.038662828505039215, -0.11520008742809296, -0.02439495176076889, -0.048859111964702606, 0.16796910762786865, 0.10288285464048386, 0.012760222889482975, -0.06651220470666885, -0.04770680144429207, -0.0012706451816484332, 0.18954676389694214, -0.0550687201321125, -0.05234284698963165, -0.04517420381307602, 0.009144595824182034, -0.008510672487318516, -0.023579418659210205, -0.10877808183431625, 0.20579779148101807, 0.0456789992749691, -0.10655631124973297, -0.0005102576687932014, -0.19825813174247742, -0.27063149213790894, -0.13730843365192413, -0.19474636018276215, 0.037799593061208725, 0.01989624835550785, -0.03415149077773094, -0.23759765923023224, -0.08594837039709091, -0.0839887484908104], [-0.10078363120555878, 0.1626245528459549, 0.1637805551290512, 0.05594828724861145, -0.1420927494764328, 0.0973266214132309, 0.06331147253513336, -0.02354322373867035, -0.0010517623741179705, -0.017524296417832375, 0.01321818120777607, -0.00493661779910326, 0.018030017614364624, -0.055594734847545624, -0.04957786947488785, -0.03760967403650284, 0.09782704710960388, 0.0051744249649345875, 0.08704688400030136, 0.2592626214027405, 0.07495968788862228, -0.10505872219800949, 0.10089092701673508, 0.14998012781143188, 0.14297185838222504, 0.08245523273944855, 0.27911028265953064, 0.12210384011268616, 0.1955951303243637, 0.09417800605297089, 0.20729263126850128, 0.22262348234653473, 0.027995385229587555, 0.18340101838111877, -0.03257059305906296, 0.1275659203529358, 0.04903542250394821, 0.030924374237656593, 0.05732201412320137, -0.02491142228245735, 0.10607258975505829, 0.10056212544441223, 0.0845455452799797, 0.009610332548618317, 0.02746753953397274, -0.17656193673610687, 0.1741824895143509, -0.09498447179794312, 0.11677414178848267, -0.012734966352581978, -0.01944945752620697, 0.038730327039957047, -0.06452768296003342, 0.09065471589565277, 0.015558173879981041, 0.21155434846878052, 0.04737093299627304, -0.1540137380361557, 0.01445673406124115, 0.12182103842496872, 0.05830756574869156, 0.1267920583486557, 0.08651113510131836, 0.07194364070892334, 0.007732047233730555, 0.09581911563873291, 0.13519003987312317, 0.007371089421212673, -0.05099990591406822, 0.05533147603273392, 0.031192632392048836, 0.07705418765544891, 0.19658075273036957, -0.05019472539424896, -0.06263606250286102, 0.05161731317639351, 0.12199626863002777, -0.06115352362394333, 0.006447293795645237, 0.25147032737731934, 0.12000524252653122, 0.14478081464767456, 0.1008627712726593, -0.06446468085050583, 0.06811649352312088, 0.1286834329366684, 0.2121531367301941, 0.1560419350862503, -0.03776520863175392, -0.03506409376859665, 0.10992830991744995, -0.01746053621172905, 0.11039683222770691, -0.00834991317242384, 0.17742642760276794, 0.12495122849941254, 0.07092130929231644, 0.06000294163823128, -0.004494437947869301, -0.12337957322597504, 0.15934254229068756, -0.11861443519592285, 0.03808387368917465, 0.11837165802717209, -0.018734516575932503, -0.003184949979186058, 0.05787746235728264, -0.061888158321380615, -0.12687581777572632, 0.15059812366962433, 0.08384791016578674, 0.04639251530170441, 0.04028284549713135, 0.08191236108541489, -0.023985859006643295, 0.03854462131857872, 0.01831386610865593, -0.022243503481149673, -0.1355431228876114, -0.08753243088722229, -0.019958360120654106, -0.018257344141602516, 0.07075612992048264, 0.12949563562870026, 0.036368660628795624, 0.07578267902135849, -0.17709292471408844, 0.15027764439582825, 0.10312188416719437, 0.07162495702505112, 0.0844380185008049, 0.17836177349090576, 0.0775371864438057, -0.04558689147233963, 0.07225771248340607, -0.0043504731729626656, 0.07405794411897659, 0.03830786794424057, 0.03004300408065319, 0.09494757652282715, -0.10610975325107574, 0.04646321386098862, 0.01258048601448536, 0.00782309751957655, 0.11353946477174759, 0.10171498358249664, 0.1831807643175125, 0.2313643991947174, 0.16160039603710175, 0.1558413952589035, 0.09749401360750198, 0.2325228452682495, 0.005976314190775156, -0.016096247360110283, -0.022428257390856743, 0.03810422122478485, -0.033449385315179825, 0.09106215834617615, -0.025823019444942474, 0.016596052795648575, -0.0009921927703544497, -0.06318800896406174, 0.02191976271569729, 0.04571027681231499, 0.010853393003344536, -0.06933043152093887, 0.12196625024080276, 0.10064112395048141, 0.10789435356855392, -0.11121018975973129, -0.040225859731435776, -0.04781079292297363, 0.07017574459314346, 0.11306969821453094, 0.01808190532028675, -0.028353724628686905, 0.05348758026957512, 0.18337152898311615, 0.017656531184911728, -0.16767644882202148, 0.05550302192568779, 0.17755624651908875, -0.03633277863264084, -0.18706563115119934, -0.06471516937017441, 0.118106909096241, 0.05884046480059624, -0.0239446721971035, 0.20652499794960022, -0.14033882319927216, -0.02570253796875477, 0.13333413004875183, 0.030494291335344315, 0.1239653006196022, 0.02388008125126362, 0.026141351088881493, -0.07852818071842194, 0.24606366455554962, -0.1925087869167328, 0.08975788205862045, -0.06194189935922623, 0.11212006211280823, -0.024672601372003555, 0.07091984897851944, -0.07533774524927139, -0.13585197925567627, -0.051477644592523575, 0.20524093508720398, 0.13564881682395935, 0.08278059214353561, 0.2767374813556671, 0.08741243928670883, 0.10672446340322495, 0.08678480982780457, 0.27273038029670715, 0.018422380089759827, 0.20562730729579926, 0.155665785074234, 0.009237382560968399, 0.042455028742551804, -0.00250185071490705, 0.027674946933984756, 0.12476678192615509, -0.056107934564352036, 0.08112756907939911, 0.1459883600473404, 0.06239264830946922, 0.02685580961406231, 0.11658993363380432, 0.055406589061021805, 0.028440287336707115, 0.07670298218727112, -0.09777701646089554, 0.035197664052248, -0.08885499089956284, 0.05148370563983917, 0.011279691010713577, 0.14388351142406464, -0.17664095759391785, 0.01618305593729019, -0.034410037100315094, 0.01622759737074375, 0.09364520013332367, -0.070336252450943, 0.06337673217058182, 0.08787562698125839, -0.12261540442705154, -0.13221235573291779, -0.019458133727312088, 0.047282494604587555, -0.031792573630809784, 0.0029260842129588127], [0.10208785533905029, 0.012294191867113113, 0.024824043735861778, -0.19292262196540833, -0.1804770976305008, -0.1449895054101944, 0.12666359543800354, -0.1295689046382904, -0.04340192675590515, -0.16708172857761383, -0.1110328659415245, 0.008836084976792336, -0.12467215955257416, 0.18449994921684265, -0.005648743826895952, 0.07535094022750854, 0.07467221468687057, -0.010418465360999107, -0.07199303060770035, -0.24099642038345337, -0.1327383667230606, 0.19301825761795044, -0.06414731591939926, -0.20031653344631195, -0.09097952395677567, -0.01911609247326851, -0.0027065305039286613, -0.05617515370249748, 0.0563395693898201, -0.134444922208786, -0.19836758077144623, -0.028927987441420555, -0.13616061210632324, -0.02117622084915638, -0.027607955038547516, -0.14481106400489807, 0.06672749668359756, 0.06008943170309067, 0.019315244629979134, -0.05591413006186485, -0.12452574819326401, -0.0009289614972658455, -0.1811186522245407, -0.01338821742683649, -0.028080347925424576, 0.1681060492992401, -0.018368542194366455, -0.03117343783378601, -0.04593782126903534, -0.06095088645815849, -0.016535433009266853, 0.02984032779932022, -0.07677904516458511, -0.13023824989795685, -0.032483868300914764, -0.15106351673603058, -0.04729272797703743, -0.03935857117176056, 0.10512753576040268, 0.06328539550304413, 0.007566859945654869, 0.028543049469590187, -0.03241445869207382, -0.06584826856851578, -0.06362374126911163, -0.18197327852249146, -0.14627894759178162, -0.10026995092630386, -0.3593927323818207, -0.04977981001138687, 0.06104002520442009, -0.016939431428909302, 0.12714265286922455, -0.13020041584968567, -0.09527793526649475, -0.04215191304683685, 0.059910453855991364, -0.050013307482004166, -0.07564453780651093, -0.08072540163993835, 0.09908033907413483, 0.08142673224210739, -0.05102168396115303, -0.0568561889231205, -0.11382889002561569, -0.03873444348573685, -0.15128247439861298, -0.04015368968248367, -0.08138632029294968, -0.027219073846936226, -0.07596847414970398, 0.051079802215099335, 0.05031150206923485, 0.06689473241567612, 0.03791471943259239, -0.22597472369670868, -0.0737362951040268, -0.14634640514850616, -0.03174859657883644, -0.08338383585214615, 0.17947296798229218, -0.018746288493275642, -0.06771140545606613, -0.08669403940439224, -0.10848177969455719, -0.03385721147060394, 0.012501299381256104, 0.18857404589653015, 0.12332925945520401, -0.0377882681787014, -0.01912843994796276, -0.0768347978591919, -0.0769171267747879, -0.08401627093553543, -0.07436405122280121, 0.04736475646495819, -0.03324798867106438, -0.17838984727859497, -0.1507101058959961, -0.15779370069503784, -0.12279818952083588, 0.09166573733091354, 0.057294316589832306, 0.004492065869271755, -0.14911629259586334, -0.22245192527770996, -0.0017973349895328283, -0.0697847306728363, -0.08094129711389542, -0.21717867255210876, -0.12553881108760834, -0.1728750765323639, -0.010821104981005192, -0.22163839638233185, 0.02452312596142292, -0.02680574730038643, -0.1302759051322937, 0.015650764107704163, -0.0899258404970169, 0.1522836983203888, -0.02474663406610489, -0.17206336557865143, 0.2144952118396759, 0.03840096294879913, -0.04480049014091492, -0.1672138124704361, -0.04145212471485138, -0.09733462333679199, 0.05677151307463646, -0.058233652263879776, -0.22830894589424133, -0.03596128150820732, -0.03745289519429207, -0.21469338238239288, -0.11745303124189377, -0.050571735948324203, -0.06313897669315338, -0.11893553286790848, -0.10326239466667175, -0.2128109186887741, 0.10036209970712662, -0.02464461326599121, -0.06721262633800507, -0.20005623996257782, -0.04593322053551674, -0.04174429923295975, 0.02328980341553688, 0.17336362600326538, -0.052168842405080795, 0.009446916170418262, -0.10557983070611954, 0.1312234252691269, 0.05253808572888374, -0.2596985697746277, 0.005273706745356321, -0.044419966638088226, -0.28046852350234985, -0.016769543290138245, 0.03725464269518852, -0.08987059444189072, -0.04003426805138588, -0.19727970659732819, 0.00614727009087801, -0.09180941432714462, -0.18622946739196777, 0.019383853301405907, 0.007426899392157793, -0.035013750195503235, -0.08421209454536438, 0.00815229956060648, -0.058881789445877075, -0.23670056462287903, -0.20471395552158356, -0.07335247844457626, -0.2748895585536957, -0.012969055213034153, -0.10086172819137573, 0.021064450964331627, 0.07273443043231964, 0.02868124097585678, 0.004428254906088114, -0.04320770129561424, 0.2184087187051773, 0.08153723925352097, -0.2162909209728241, 0.1330314576625824, -0.08714824169874191, -0.09023229032754898, -0.023840125650167465, -0.04701248183846474, -0.2206665575504303, -0.009263907559216022, -0.12813790142536163, -0.08744402974843979, -0.035523008555173874, -0.08389852195978165, -0.12695607542991638, 0.13294410705566406, 0.054611291736364365, -0.10611799359321594, 0.04593675956130028, -0.21206267178058624, 0.02008635364472866, -0.2374904304742813, -0.04386534169316292, 0.0419606976211071, -0.1379179209470749, -0.16375751793384552, -0.261141836643219, 0.0509001687169075, -0.05560746416449547, 0.09239400178194046, -0.015152202919125557, -0.027656536549329758, 0.1826830357313156, 0.06870778650045395, 0.04991008713841438, -0.004865154158324003, -0.19212061166763306, -0.15191972255706787, 0.024834170937538147, 0.005176253616809845, 0.018603704869747162, -0.17103774845600128, -0.15522803366184235, 0.01018182560801506, 0.15571661293506622, -0.050380393862724304, -0.12930132448673248, -0.013024860993027687, -0.07451706379652023, 0.03772464022040367], [-0.03013419359922409, -0.1324758231639862, -0.029437469318509102, -0.08167541772127151, -0.05114602670073509, 0.04089130461215973, 0.18548648059368134, -0.18092739582061768, -0.1865357607603073, -0.17441700398921967, -0.011802874505519867, -0.04756680876016617, 0.16146168112754822, 0.001996803330257535, 0.02127545140683651, -0.2400062531232834, 0.001544720260426402, -0.051511380821466446, -0.10112537443637848, -0.08850741386413574, -0.04275426268577576, -0.05111730471253395, -0.06461819261312485, -0.05561981722712517, -0.22389395534992218, -0.053818296641111374, 0.016756419092416763, -0.030304983258247375, 0.04116557538509369, -0.10018104314804077, -0.04383354261517525, -0.17777512967586517, -0.0736653134226799, -0.05968007445335388, -0.10346374660730362, -0.2081495225429535, -0.016597501933574677, -0.12872792780399323, 0.016758736222982407, -0.14093859493732452, -0.1450231969356537, -0.14052289724349976, -0.15691407024860382, -0.2661247253417969, 0.03534102067351341, -0.024364342913031578, -0.1039198637008667, 0.0939411073923111, 0.030560575425624847, 0.08102990686893463, -0.11661148071289062, -0.09127839654684067, 0.09465348720550537, -0.2464572638273239, 0.20965561270713806, 0.02251524105668068, -0.004220074508339167, 0.057717639952898026, 0.2660525143146515, 0.11011049151420593, 0.10059947520494461, -0.09018458425998688, -0.035231929272413254, 0.04105747491121292, -0.024691224098205566, -0.11962846666574478, 0.02862761728465557, -0.05428168550133705, -0.0698777437210083, -0.06404542177915573, 0.02588753029704094, -0.22660352289676666, 0.06671133637428284, -0.16479912400245667, -0.05827771872282028, -0.06510636955499649, -0.010697620920836926, 0.021160898730158806, -0.028977343812584877, 0.12353262305259705, 0.16441456973552704, -0.16244471073150635, -0.21014446020126343, -0.131367489695549, -0.08041008561849594, -0.16344493627548218, 0.09816975891590118, -0.1256815791130066, -0.05766353756189346, -0.02351430617272854, -0.21858131885528564, -0.04496929794549942, -0.06250438094139099, 0.022502783685922623, -0.03851711004972458, -0.1307363063097, -0.09652137011289597, -0.3235241770744324, -0.1530245840549469, -0.028852293267846107, -0.08044412732124329, -0.22687497735023499, -0.00024769947049207985, -0.09795702993869781, -0.16300150752067566, -0.08992549031972885, -0.08913083374500275, -0.09510741382837296, 0.19773398339748383, -0.26929178833961487, -0.22829429805278778, -0.00035045025288127363, 0.011971171014010906, 0.035527244210243225, -0.08504463732242584, 0.11511483043432236, 0.0926508828997612, 0.05610209330916405, 0.058807577937841415, 0.13182790577411652, 0.07545533776283264, -0.08217514306306839, -0.0347893163561821, -0.10613971203565598, -0.1553087681531906, -0.07179295271635056, 0.013335595838725567, 0.09628927707672119, -0.10150568932294846, -0.18374134600162506, -0.09476952999830246, -0.07443159818649292, -0.10751066356897354, -0.032760534435510635, -0.19622981548309326, -0.1070738285779953, -0.09687212109565735, 0.05295097827911377, 0.03731244429945946, -0.06171277165412903, 0.04411175474524498, 0.2089621126651764, 0.009427683427929878, -0.005709677468985319, -0.05022270232439041, -0.12733331322669983, -0.11457366496324539, -0.12174428999423981, -0.19239801168441772, -0.03988023102283478, -0.07823360711336136, -0.18646545708179474, 0.04019396752119064, -0.1016283705830574, -0.08685648441314697, -0.12246935069561005, -0.050796300172805786, -0.17076173424720764, -0.106658935546875, -0.15236525237560272, -0.12322669476270676, -0.14532843232154846, -0.06738605350255966, 0.02071811445057392, -0.15928758680820465, 0.007025573868304491, -0.03221943601965904, -0.01464014034718275, -0.07655272632837296, -0.15509626269340515, -0.14953050017356873, 0.15797269344329834, -0.08437339216470718, 0.13759109377861023, 0.07279951870441437, 0.14068244397640228, -0.10451851040124893, -0.08054810017347336, -0.15970632433891296, 0.0680427998304367, -0.027254674583673477, -0.017932103946805, 0.06275254487991333, -0.0179631095379591, -0.11770817637443542, 0.0762624740600586, -0.10852845758199692, -0.11152863502502441, -0.04750930890440941, 0.0861193984746933, -0.18374194204807281, -0.10250896215438843, -0.2138633131980896, 0.0018012610962614417, -0.12477360665798187, -0.05756687372922897, -0.0971575528383255, -0.13474656641483307, 0.005037195514887571, -0.10113666951656342, -0.03411865234375, 0.0723966583609581, 0.0015839221887290478, 0.10581766813993454, 0.10399146378040314, 0.04100615903735161, 0.023073121905326843, -0.037095729261636734, -0.10308609157800674, -0.029380789026618004, -0.11667685955762863, -0.21817849576473236, -0.029786845669150352, 0.04111308231949806, -0.2213364541530609, -0.0824018195271492, -0.0043694814667105675, -0.1343877762556076, 0.05343069136142731, -0.05963210016489029, -0.0784718319773674, 0.033011265099048615, -0.09609431028366089, -0.026166025549173355, -0.04372032359242439, -0.0924547016620636, -0.15027661621570587, 0.08102469891309738, -0.019277524203062057, -0.0749354436993599, -0.17340019345283508, -0.17131732404232025, 0.0508168525993824, -0.14491817355155945, -0.06840866059064865, -0.035222377628088, 0.04745452105998993, -0.009053035639226437, 0.07125157117843628, 0.16699132323265076, -0.21345481276512146, 0.014749887399375439, -0.11420459300279617, -0.1182602271437645, -0.09519737213850021, -0.01488338503986597, -0.1091821938753128, 0.06713803112506866, -0.05489344522356987, 0.01234709657728672, 0.006013591308146715, -0.0050816722214221954], [-0.24393413960933685, -0.006418713368475437, 0.04265841096639633, -0.004857147578150034, 0.021951034665107727, -0.14252124726772308, 0.1556246131658554, 0.03660184144973755, 0.07100553065538406, -0.31111234426498413, 0.08542028814554214, -0.03932780399918556, 0.0026191300712525845, -0.06772797554731369, -0.012285756878554821, 0.03161638602614403, -0.09057236462831497, -0.03982659429311752, 0.028299957513809204, -0.027354009449481964, 0.060881320387125015, -0.029265163466334343, -0.18112483620643616, 0.11441220343112946, 0.0023265609052032232, -0.07613053172826767, -0.017759427428245544, -0.06713812053203583, -0.055007774382829666, -0.05875755101442337, 0.05555536225438118, -0.03195939213037491, 0.07482745498418808, -0.060949187725782394, 0.09930402785539627, 0.12959155440330505, -0.06834421306848526, -0.024840740486979485, -0.07926718890666962, 0.021996010094881058, 0.0245236624032259, 0.060018036514520645, 0.05428577587008476, -0.07597030699253082, -0.13560809195041656, -0.04707228019833565, 0.1309998482465744, 0.06894215196371078, -0.027211327105760574, -0.029806695878505707, -0.012350564822554588, 0.11610163003206253, -0.03849046304821968, -0.048515938222408295, -0.2782236635684967, -0.2993333041667938, 0.06230374425649643, 0.06074271723628044, -0.10565551370382309, -0.13022063672542572, -0.1684437394142151, -0.277360200881958, 0.11111568659543991, -0.11100838333368301, 0.01078319177031517, 0.11160480231046677, 0.1156233623623848, -0.041466858237981796, -0.10156776010990143, -0.0005537666147574782, -0.03338465467095375, 0.0941062867641449, -0.2318924367427826, -0.12433852255344391, -0.003531977068632841, -0.19628217816352844, 0.06230881065130234, 0.11533743143081665, 0.059593986719846725, 0.05151494964957237, -0.07054857164621353, 0.09698653221130371, 0.12766441702842712, -0.05617981404066086, -0.06625515967607498, -0.026277098804712296, -0.036732014268636703, -0.1679116040468216, -0.07918122410774231, -0.038165099918842316, -0.042251355946063995, -0.14638394117355347, 0.05097537860274315, 0.032316725701093674, 0.17221617698669434, 0.01019905786961317, -0.12205814570188522, 0.08399737626314163, 0.065770722925663, 0.17013180255889893, 0.06681551039218903, 0.1289067268371582, 0.14120300114154816, 0.1313316375017166, 0.0014658557483926415, -0.09377136826515198, 0.10157584398984909, -0.003510349430143833, 0.014613045379519463, -0.006777049042284489, 0.1357424110174179, -0.15505816042423248, -0.06516163051128387, -0.0829867497086525, 0.05395054072141647, 0.02657903917133808, 0.0027951933443546295, -0.17757578194141388, -0.18160216510295868, -0.1483563631772995, -0.021799486130475998, 0.029804402962327003, -0.21682041883468628, -0.10954578220844269, -0.16276729106903076, -0.06814422458410263, 0.15958379209041595, -0.1846010982990265, 0.21305213868618011, -0.05240178480744362, -0.09075871855020523, 0.04428115859627724, 0.06244109570980072, -0.12421053647994995, -0.060124509036540985, -0.36610057950019836, -0.2625761330127716, 0.07843966782093048, 0.017822707071900368, -0.18170534074306488, 0.12209475040435791, -0.06935517489910126, 0.0583852082490921, -0.007268717512488365, 0.19150123000144958, -0.026655886322259903, -0.024713806807994843, 0.02447452023625374, 0.017342431470751762, 0.003815515199676156, -0.11357893794775009, 0.16048884391784668, -0.08176727592945099, 0.008869207464158535, -0.0019734122324734926, 0.14102497696876526, -0.04005568102002144, 0.027394624426960945, 0.0983821451663971, 0.03292089328169823, 0.16715899109840393, -0.02053697593510151, -0.014741198159754276, 0.02205035649240017, -0.012179841287434101, 0.056393805891275406, -0.014350904151797295, 0.002368701621890068, 0.0001297065318794921, 0.17294412851333618, -0.02482275664806366, 0.18776154518127441, -0.07554657757282257, -0.07855311036109924, -0.0765567198395729, -0.018800994381308556, 0.1271057426929474, 0.018926721066236496, -0.09397943317890167, 0.03165983781218529, -0.5195716619491577, -0.1610117107629776, 0.16522477567195892, 0.03397965058684349, 0.0006786751910112798, -0.14509668946266174, -0.11232512444257736, -0.2117544710636139, -0.2677367031574249, 0.24289824068546295, -0.09671144187450409, 0.028346793726086617, -0.21640250086784363, -0.1338692307472229, -0.006268863566219807, -0.11257873475551605, -0.09706974029541016, 0.1761104017496109, -0.23841717839241028, -0.4165278971195221, 0.11396348476409912, -0.06080028787255287, -0.01594044268131256, 0.0985102429986, 0.2611311376094818, -0.1157890036702156, 0.11128181964159012, 0.3203853368759155, 0.022916903719305992, 0.052338358014822006, -0.13185565173625946, -0.08458759635686874, 0.013194826431572437, 0.13931410014629364, 0.12160540372133255, 0.07183676958084106, 0.034064315259456635, 0.06585429608821869, -0.17962443828582764, -0.10976202040910721, -0.0841495469212532, -0.1291688084602356, 0.13276316225528717, 0.021650120615959167, 0.0527205727994442, 0.00775327580049634, 0.08517980575561523, 0.014314109459519386, 0.10946705937385559, -0.030076056718826294, -0.045450158417224884, -0.14066815376281738, 0.22683538496494293, -0.3309887647628784, 0.029755540192127228, -0.21552853286266327, -0.07609256356954575, -0.09560886770486832, 0.003806344699114561, 0.1680813878774643, -0.002231336897239089, 0.09935417771339417, -0.09505518525838852, -0.2371877133846283, -0.05239499360322952, -0.09654539823532104, -0.0984971672296524, -0.1604691445827484, -0.2506583631038666, -0.10016801953315735, -0.36705341935157776, -0.0753827840089798], [-0.21542716026306152, 0.06014888361096382, 0.004817469976842403, 0.14333607256412506, 0.04775867611169815, -0.08893659710884094, 0.04646261781454086, 0.07519759237766266, 0.07596999406814575, 0.15046416223049164, 0.15113264322280884, 0.07478227466344833, -0.13586662709712982, 0.2012924998998642, 0.016739416867494583, -0.014366052113473415, 0.3095095157623291, -0.014262600801885128, -0.17516109347343445, -0.06599301099777222, -0.12686696648597717, 0.12967362999916077, 0.12018698453903198, 0.04352939873933792, 0.10851021111011505, -0.03975975885987282, 0.009424736723303795, 0.24226723611354828, 0.11961066722869873, 0.015119731426239014, 0.05971137434244156, -0.10067198425531387, 0.014830044470727444, -0.02746054157614708, 0.04167329892516136, -0.10079087316989899, -0.06743206083774567, -0.020240208134055138, 0.09239163994789124, 0.12203717976808548, 0.06627502292394638, 0.048521097749471664, -0.1571836918592453, 0.16324754059314728, 0.20853771269321442, 0.05418482795357704, -0.004457800183445215, 0.031540464609861374, 0.04443158581852913, -0.08025295287370682, -0.13538725674152374, -0.020290972664952278, 0.11573729664087296, 0.0010079611092805862, -0.1210736557841301, -0.18960799276828766, 0.0038471610751003027, 0.2482829988002777, 0.6251398921012878, 0.39478567242622375, 0.019374186173081398, -0.1952558308839798, 0.03202046826481819, -0.036258865147829056, -0.004887933377176523, -0.008618725463747978, -0.08530861884355545, 0.09326382726430893, 0.015650171786546707, 0.07141783833503723, 0.08128758519887924, 0.05061281844973564, 0.12374402582645416, -0.22701795399188995, -0.08621378988027573, -0.07517651468515396, 0.13066071271896362, -0.048051029443740845, 0.13875991106033325, 0.21996013820171356, 0.07186189293861389, 0.03266889229416847, 0.112910695374012, 0.07746806740760803, 0.10478626936674118, -0.06747587770223618, 0.08671585470438004, 0.01848439872264862, -0.13747531175613403, 0.15546713769435883, 0.02367928810417652, -0.08661952614784241, 0.09922659397125244, 0.06044246628880501, 0.04119357094168663, -0.11293749511241913, 0.17450514435768127, -0.01578119769692421, 0.09751051664352417, 0.007444960996508598, 0.012177948839962482, -0.04656830057501793, 0.10600269585847855, -0.10606218129396439, 0.049126606434583664, -0.005939512047916651, 0.10728850960731506, -0.029920099303126335, -0.05974981561303139, -0.12158199399709702, 0.046543531119823456, 0.0553860105574131, 0.09183363616466522, -0.0748864933848381, 0.12724916636943817, 0.10219990462064743, -0.03705887869000435, -0.010281220078468323, -0.15978771448135376, -0.039497967809438705, 0.25866037607192993, 0.5715246796607971, 0.39440780878067017, 0.13072733581066132, -0.014663814567029476, 0.17040804028511047, 0.15144242346286774, 0.0525694340467453, 0.16569401323795319, 0.0960150808095932, 0.01992368884384632, -0.003771731862798333, -0.1483403742313385, 0.03919041529297829, -0.08001398295164108, 0.011145606637001038, -0.16179406642913818, -0.07352081686258316, 0.08619514852762222, 0.1482444703578949, 0.018311413004994392, -0.050852466374635696, 0.2605028748512268, -0.06160636246204376, -0.03763148933649063, 0.005437667015939951, -0.05266319960355759, -0.028244230896234512, -0.08950931578874588, -0.014865278266370296, 0.05982011929154396, -0.015900973230600357, -0.0685809776186943, 0.07404835522174835, 0.04341115057468414, 0.35211464762687683, 0.14115187525749207, -0.029335903003811836, 0.004309973679482937, -0.08814747631549835, -0.05181421339511871, -0.03133748471736908, 0.026916638016700745, 0.038587119430303574, -0.00404480192810297, -0.06234391778707504, -0.07554204761981964, 0.07911941409111023, 0.01246249582618475, -0.22509433329105377, 0.009307903237640858, -0.11697150021791458, -0.2297678142786026, -0.09330683201551437, 0.08339090645313263, 0.08111822605133057, -0.04787081107497215, -0.05973827466368675, 0.11363843828439713, -0.07633593678474426, -0.1959153264760971, -0.26945817470550537, -0.02708863839507103, 0.2291686236858368, 0.7343673706054688, 0.3123178780078888, 0.10779986530542374, -0.18345727026462555, 0.11282699555158615, 0.1529577672481537, 0.09606125950813293, 0.03802013397216797, -0.03456849977374077, -0.2001620978116989, -0.272194504737854, 0.056553587317466736, -0.11793114244937897, -0.05121341720223427, 0.19907791912555695, -0.291292279958725, 0.012774975970387459, -0.1756078600883484, 0.05274087190628052, 0.151560977101326, 0.14928433299064636, 0.18082700669765472, -0.11934904009103775, -0.06624577939510345, -0.12511858344078064, 0.12853369116783142, -0.09072753041982651, 0.02576715685427189, 0.048947881907224655, -0.00481376051902771, 0.008575081825256348, 0.015325155109167099, 0.1263793259859085, 0.027851831167936325, 0.05580463260412216, -0.0008346126414835453, -0.033314187079668045, -0.03296665474772453, -0.051794182509183884, -0.02081461064517498, -0.10347449034452438, -0.02797427400946617, 0.08805673569440842, -0.019981974735856056, -0.1778106540441513, 0.01472019124776125, 0.11398044228553772, -0.18196918070316315, 0.09233890473842621, -0.16299736499786377, 0.004917031619697809, -0.02500680647790432, 0.012597188353538513, 0.10661047697067261, -0.009628691710531712, -0.07477691024541855, -0.02911084145307541, 0.19923058152198792, 0.13244138658046722, -0.22600264847278595, -0.22519749402999878, -0.06763938814401627, 0.38335803151130676, 0.5084825158119202, 0.4135837256908417, -0.011398551985621452, -0.08551761507987976, 0.1269993782043457], [0.010341736488044262, 0.16775596141815186, 0.042668215930461884, 0.18583109974861145, -0.05534657835960388, 0.27081650495529175, 0.20436711609363556, 0.11011525988578796, -0.008313443511724472, 0.1359090656042099, 0.18048982322216034, 0.05732974782586098, -0.010159537196159363, -0.024839697405695915, 0.15541096031665802, -0.037263404577970505, 0.09444709867238998, 0.07650954276323318, 0.04612795263528824, 0.029617931693792343, -0.13784481585025787, -0.07008279860019684, 0.0077178278006613255, -0.1617947518825531, -0.02133641578257084, -0.04951336607336998, -0.09158655256032944, 0.07991030067205429, -0.02772402949631214, -0.024029070511460304, -0.07512999325990677, -0.06975837051868439, 0.03799434006214142, -0.01633792743086815, -0.05253025144338608, -0.02902662754058838, 0.041182491928339005, 0.12228285521268845, -0.23141872882843018, -0.025010792538523674, -0.0013501624343916774, 0.003509087720885873, 0.05214890465140343, -0.1985456943511963, -0.07154518365859985, 0.10505921393632889, 0.01652628555893898, -0.03201233968138695, -0.04072420299053192, 0.29369476437568665, 0.04155569151043892, -0.13000239431858063, 0.023914452642202377, 0.035287901759147644, -0.09540755301713943, -0.23171290755271912, -0.15977157652378082, -0.1700964868068695, -0.19835028052330017, 0.10110779106616974, 0.10209783166646957, -0.0012126922374591231, -0.002923566848039627, 0.034294649958610535, -0.037917520850896835, -0.12279917299747467, 0.13506439328193665, 0.1238115206360817, 0.09523617476224899, 0.10182099044322968, -0.19444863498210907, 0.16291533410549164, 0.11091442406177521, 0.04716546833515167, 0.11034177243709564, 0.0365525521337986, -0.0460328608751297, -0.02493451163172722, -0.1349753588438034, 0.1288246065378189, 0.15240158140659332, 0.22049224376678467, -0.06494158506393433, 0.0240816380828619, 0.09531470388174057, -0.18563717603683472, -0.024189526215195656, -0.16368365287780762, -0.09098277240991592, -0.026591086760163307, -0.128759503364563, 0.08984284102916718, 0.11604064702987671, -0.11228752136230469, -0.03558644652366638, 0.10023344308137894, -0.0787205696105957, -0.18271107971668243, -0.02162584662437439, -0.05288949981331825, -0.1563243567943573, -0.08672722429037094, -0.15121883153915405, 0.05155278369784355, -0.022016707807779312, -0.18441404402256012, -0.03788029029965401, 0.10864502191543579, -0.19042479991912842, 0.02408473938703537, -0.13811269402503967, 0.023003144189715385, 0.1664477288722992, -0.11880303919315338, -0.0064335772767663, 0.10004699230194092, 0.04193700850009918, 0.01343766413629055, 0.03170600160956383, -0.19941917061805725, -0.43592509627342224, 0.003784041851758957, 0.08226027339696884, -0.07614924758672714, -0.10605151951313019, -0.1898723542690277, 0.13387875258922577, 0.07678980380296707, 0.0760960727930069, 0.0817503109574318, -0.06277412921190262, 0.20051458477973938, 0.13164541125297546, 0.04576784744858742, 0.05133425071835518, 0.006729834713041782, 0.14797857403755188, 0.022536229342222214, 0.03773679584264755, -0.02133086882531643, 0.28385961055755615, 0.028880691155791283, 0.07915977388620377, 0.02382379211485386, 0.10907560586929321, -0.004318935330957174, 0.0500769279897213, 0.17262403666973114, -0.09688936918973923, 0.03399715945124626, 0.2108134776353836, -0.027628285810351372, 0.0223940908908844, 0.05742204561829567, -0.02927771769464016, -0.020566340535879135, -0.003101426176726818, 0.05774031579494476, 0.09247919172048569, -0.12298338115215302, -0.16470223665237427, -0.10432179272174835, -0.16682502627372742, -0.006592618301510811, -0.017008299008011818, 0.008517475798726082, 0.0019328542985022068, -0.035566672682762146, 0.16711655259132385, 0.021322911605238914, -0.07932887226343155, 0.10434941202402115, 0.10708960145711899, -0.12551313638687134, 0.004177927039563656, 0.11869393289089203, 0.013778558932244778, -0.1300942599773407, 0.06868885457515717, 0.07378283888101578, 0.10927139967679977, -0.2245086282491684, -0.23782072961330414, -0.1068640798330307, -0.15109004080295563, -0.10033354163169861, 0.09995236992835999, 0.0799119770526886, 0.036479402333498, 0.15856240689754486, -0.003828947665169835, 0.16876345872879028, -0.058615535497665405, -0.04478369280695915, 0.18746261298656464, 0.03706346079707146, -0.058214765042066574, 0.2570910155773163, 0.03802982717752457, 0.014005838893353939, 0.049907755106687546, 0.11305876821279526, -0.12150933593511581, 0.129523366689682, 0.10110555589199066, 0.027092138305306435, 0.128082275390625, 0.047353748232126236, 0.0031302182469516993, 0.16506728529930115, 0.13669736683368683, -0.008030825294554234, 0.0512724295258522, -0.11916089057922363, -0.07088344544172287, 0.07942411303520203, 0.012305524200201035, -0.05375388637185097, -0.14305491745471954, -0.09052380919456482, 0.13461673259735107, -0.027265669777989388, -0.17395013570785522, -0.13062162697315216, -0.0458490252494812, -0.09545952826738358, 0.18219667673110962, -0.0727510005235672, 0.10134890675544739, 0.001011317246593535, -0.11073928326368332, 0.18836234509944916, -0.08461391180753708, 0.058797504752874374, -0.0060440851375460625, 0.09998354315757751, -0.15421882271766663, -0.07541269809007645, 0.09802651405334473, -0.025301259011030197, -0.1042814776301384, 0.007914322428405285, 0.08438632637262344, -0.1583542823791504, -0.10296680778265, -0.3493262827396393, -0.13119006156921387, -0.10024163872003555, 0.04399259388446808, -0.11468257009983063, 0.1535838395357132, 0.011562689207494259], [0.11518372595310211, -0.3359047472476959, -0.11756766587495804, -0.1462114006280899, 0.017160698771476746, 0.12739580869674683, 0.12297068536281586, 0.003207272384315729, 0.21312245726585388, -0.3298647701740265, -0.14161963760852814, 0.04999162256717682, 0.25680503249168396, 0.07231640070676804, -0.18449550867080688, -0.005563783925026655, -0.11682011187076569, 0.0030713293235749006, 0.053686778992414474, -0.13494621217250824, 0.08916444331407547, -0.08612041920423508, -0.018816165626049042, 0.06791966408491135, 0.09409443289041519, -0.03991308808326721, -0.10584865510463715, -0.08163613826036453, 0.0649680644273758, 0.019293179735541344, -0.001458441955037415, -0.011789025738835335, -0.03160037100315094, 0.02088705077767372, 0.08658745139837265, 0.02313431166112423, -0.17783835530281067, 0.026631830260157585, -0.04895852878689766, -0.09543712437152863, -0.10734929889440536, -0.11636161804199219, -0.0018380706897005439, 0.12027542293071747, -0.01744787022471428, 0.09089173376560211, -0.04128286615014076, -0.21802736818790436, 0.051080700010061264, 0.05141895264387131, 0.04824935644865036, -0.12270630151033401, 0.12543803453445435, 0.04495549947023392, -0.047633957117795944, -0.12291979789733887, 0.30782651901245117, 0.15153619647026062, 0.175214022397995, -0.03269737586379051, -0.05778220295906067, -0.21680006384849548, -0.014907117933034897, -0.010485881939530373, -0.18366016447544098, 0.01238095574080944, -0.016931599006056786, -0.008715933188796043, -0.014760791324079037, -0.03845713660120964, -0.0004447382234502584, 0.07465673983097076, -0.10517536848783493, -0.13751184940338135, 0.014374535530805588, 0.2505740523338318, 0.1430211067199707, -0.20743438601493835, -0.22500436007976532, -0.0035672879312187433, -0.03882961347699165, 0.04455522820353508, -0.09004195779561996, -0.0359763465821743, 0.01753704622387886, -0.01988484151661396, 0.09069762378931046, -0.03986174240708351, -0.2244464010000229, -0.03217880055308342, -0.1686779409646988, 0.016528785228729248, 0.135454460978508, 0.14798906445503235, -0.10224992781877518, 0.02341141551733017, -0.0198561679571867, 0.0796763077378273, 0.08131093531847, -0.14392654597759247, 0.025146257132291794, 0.0838542953133583, 0.06935735791921616, -0.038593780249357224, 0.09334768354892731, -0.07238073647022247, -0.022087449207901955, 0.05183498561382294, -0.01830928586423397, -0.1323569416999817, -0.053238749504089355, -0.035521186888217926, -0.14236490428447723, 0.05475122854113579, 0.04922828450798988, 0.049076613038778305, 0.02961430512368679, -0.1554269790649414, -0.03828359395265579, -0.0673917755484581, 0.2724633812904358, 0.017693568021059036, -0.052243299782276154, -0.035028595477342606, 0.034368839114904404, 0.03944762796163559, 0.0002788275305647403, -0.2822260558605194, -0.13609759509563446, -0.07866176217794418, 0.0777827724814415, -0.014536738395690918, -0.10556849092245102, 0.040610965341329575, 0.137521430850029, -0.11106473952531815, 0.00900914054363966, -0.05621076002717018, 0.11657506227493286, -0.12478407472372055, -0.11536265909671783, -0.0914471298456192, 0.0766797810792923, -0.12824758887290955, -0.026742985472083092, 0.3057749569416046, 0.005461770575493574, -0.05706337094306946, -0.0444892980158329, 0.21116264164447784, 0.032615676522254944, 0.024411294609308243, -0.08107270300388336, 0.05954063683748245, 0.09681955724954605, -5.9367510402807966e-05, 0.19497303664684296, -0.10740526020526886, 0.025301482528448105, -0.19204778969287872, -0.030513672158122063, 0.03677188605070114, 0.09905749559402466, 0.0741199478507042, 0.06211042404174805, -0.07552628964185715, 0.029669243842363358, -0.07712379097938538, -0.007529148366302252, -0.13637326657772064, 0.030719662085175514, 0.06890292465686798, -0.22752250730991364, -0.04728354513645172, -0.03267607092857361, -0.15403339266777039, 0.13837973773479462, 0.023531455546617508, -0.0721840187907219, -0.17056548595428467, -0.07918674498796463, -0.13148988783359528, 0.11766510456800461, 0.27699190378189087, 0.09790347516536713, -0.03967847675085068, -0.01454535499215126, 0.05098903179168701, -0.04056238383054733, -0.040193356573581696, -0.08849068731069565, -0.08999210596084595, 0.06555908173322678, 0.022491799667477608, -0.024199748411774635, 0.07083331048488617, -0.08989683538675308, 0.01744263805449009, -0.28603827953338623, 0.24621178209781647, 0.11141932755708694, 0.10130791366100311, -0.04886814206838608, -0.14218877255916595, -0.17920111119747162, 0.2935533821582794, -0.24737459421157837, 0.1587226837873459, -0.01087308581918478, -0.0777171179652214, -0.1360965222120285, -0.023538444191217422, -0.024634461849927902, -0.06858886778354645, -0.03637499734759331, -0.03357028216123581, 0.003444933332502842, 0.04936496913433075, 0.10507243871688843, -0.06624317169189453, -0.15192833542823792, -0.23088961839675903, -0.0795557051897049, -0.04210560768842697, 0.038914237171411514, -0.004936668090522289, 0.04631776362657547, -0.007678362540900707, 0.10673710703849792, 0.07812371104955673, 0.043939195573329926, -0.006054967176169157, -0.09448748081922531, 0.039689261466264725, 0.11910023540258408, 0.07606008648872375, -0.007472533266991377, 0.08997426927089691, -0.12286754697561264, -0.00922655500471592, 0.05738121643662453, -0.14973683655261993, -0.12379249930381775, -0.255107045173645, -0.029291275888681412, 0.2644479274749756, 0.24842461943626404, 0.2906244397163391, 0.12178006023168564, 0.13957971334457397, -0.13086624443531036, -0.028259072452783585], [0.08079879730939865, -0.03639955818653107, -0.21749866008758545, -0.09563401341438293, -0.16276298463344574, 0.13122698664665222, 0.021161144599318504, -0.04527745023369789, -0.10863330960273743, 0.03435595706105232, 0.10743387788534164, 0.05870493873953819, -0.1323695182800293, 0.1762341558933258, 0.0859358087182045, 0.0784568339586258, 0.2516184151172638, 0.08978331089019775, -0.07275623083114624, -0.09390068799257278, 0.022524220868945122, -0.004372626543045044, -0.05098876729607582, 0.03429858759045601, -0.1089354008436203, -0.08036797493696213, 0.053718000650405884, -0.16381987929344177, 0.009919635951519012, -0.04721991345286369, -0.01451351772993803, -0.11893068253993988, -0.025990093126893044, -0.045027848333120346, 0.0019164466066285968, 0.02274308353662491, 0.10170900076627731, -0.017786744982004166, 0.08893106132745743, 0.09788132458925247, -0.0005749472184106708, -0.21248431503772736, -0.09935120493173599, 0.08442284911870956, -0.16573290526866913, 0.014032425358891487, -0.021815931424498558, 0.04153452068567276, -0.2899366617202759, -0.00465766154229641, -0.11071418970823288, -0.0011276733130216599, 0.047253742814064026, 0.027416791766881943, -0.7057214379310608, -0.655348539352417, -0.49432608485221863, 0.29770490527153015, 0.0559321753680706, -0.07394779473543167, -0.09229212254285812, -0.26443809270858765, -0.08171667903661728, 0.2128666639328003, -0.07306978106498718, -0.1141897439956665, -0.030068038031458855, -0.17262548208236694, 0.13976173102855682, -0.06642291694879532, -0.012678972445428371, -0.06721178442239761, 0.1765834391117096, 0.07131166756153107, 0.05375956743955612, 0.023617489263415337, 0.2441907674074173, 0.05766858905553818, -0.10085411369800568, 0.2328212410211563, 0.04573162645101547, 0.1301143765449524, -0.01143293734639883, 0.1112719252705574, -0.10043275356292725, -0.048723019659519196, -0.1251463145017624, -0.1098422259092331, 0.03798685595393181, 0.02962852083146572, -0.013573319651186466, -0.06801062822341919, 0.1098940521478653, 0.07664233446121216, -0.05199432745575905, -0.12821684777736664, -0.06352025270462036, 0.058662816882133484, 0.03368421271443367, -0.16488607227802277, 0.1493273228406906, -0.08438179641962051, 0.11513881385326385, -0.022158995270729065, -0.045585066080093384, -0.007170830387622118, -0.03972473368048668, -0.15500372648239136, -0.05729614198207855, 0.026438213884830475, 0.04184725508093834, -0.0026604882441461086, -0.061582405120134354, 0.037979088723659515, -0.019144218415021896, 0.02548644319176674, 0.05475648492574692, -0.5029475092887878, -0.7617340683937073, -0.48987579345703125, 0.06153741851449013, 0.0936516672372818, 0.0059287454932928085, -0.11385513842105865, -0.3956955373287201, -0.1479385942220688, 0.2011764645576477, -0.019451197236776352, -0.07829886674880981, -0.04344118759036064, -0.17119985818862915, 0.071205735206604, 0.1524937003850937, 0.04632481932640076, 0.04348793625831604, -0.004259330220520496, -0.008206838741898537, -0.024901647120714188, -0.04792780801653862, 0.09486883878707886, 0.17388816177845, -0.0771382749080658, 0.3811055123806, -0.001804300700314343, 0.12766268849372864, 0.2558591067790985, 0.10852845758199692, 0.002911315532401204, -0.136890709400177, -0.08412796258926392, -0.1889696568250656, -0.014162380248308182, 0.04241398349404335, -0.012150338850915432, -0.17984235286712646, 0.14597485959529877, 0.18607580661773682, 0.06051495298743248, -0.13749942183494568, 0.13251696527004242, -0.1762399822473526, -0.0462157316505909, -0.016898036003112793, -0.028849706053733826, 0.018710240721702576, 0.10654404014348984, -0.14801327884197235, 0.04131590202450752, 0.1493597775697708, -0.0728398934006691, 0.0473327562212944, 0.019459344446659088, 0.04354069009423256, -0.07559429854154587, 0.09422393143177032, -0.03291110694408417, -0.003551475005224347, -0.07697632908821106, -0.009485281072556973, 0.11797443777322769, -0.6930484771728516, -0.6912469863891602, -0.5238792300224304, -0.012829807586967945, 0.1763230413198471, -0.09433528780937195, -0.012448117136955261, -0.25729238986968994, 0.0749242976307869, 0.3443511724472046, 0.11415476351976395, -0.05551905930042267, 0.04609287902712822, 0.02726909890770912, 0.02773083932697773, 0.06936904042959213, 0.011774587444961071, 0.194597989320755, -0.021061589941382408, -0.4303191006183624, -0.0681636780500412, -0.08936530351638794, 0.12564882636070251, 0.12071361392736435, 0.09077169746160507, 0.21713197231292725, 0.05145256593823433, 0.10994594544172287, 0.27113500237464905, 0.04697871953248978, 0.02956249564886093, -0.06145310401916504, -0.05836167931556702, -0.010507537983357906, 0.06285297125577927, 0.11289259046316147, 0.11726383864879608, 0.08769397437572479, -0.086270272731781, 0.13063549995422363, -0.09822490811347961, -0.04650020971894264, -0.1109597459435463, -0.07924018055200577, -0.012725461274385452, -0.06863424926996231, -0.02831926941871643, -0.042410362511873245, -0.06703440099954605, 0.13276098668575287, 0.1867210865020752, 0.182227224111557, 0.022092966362833977, -0.24575009942054749, -0.11088819801807404, -0.11191777139902115, 0.037022095173597336, -0.021840933710336685, -0.02150941826403141, 0.11444509774446487, -0.05206482112407684, -0.00501656997948885, -0.03413889557123184, -0.7326050400733948, -0.8188866376876831, -0.4759819209575653, -0.1607082188129425, -0.036048270761966705, 0.07591929286718369, -0.3290877640247345, -0.38132551312446594, 0.06848669797182083], [-0.0015043457970023155, -0.043646205216646194, 0.15982936322689056, 0.08075268566608429, 0.054520383477211, 0.10206864029169083, 0.15269950032234192, 0.06209549680352211, 0.06391207128763199, -0.04787861183285713, -0.05965985357761383, -0.051081378012895584, 0.036831602454185486, 0.08087927103042603, 0.08040542155504227, 0.05392186716198921, 0.03013327345252037, 0.02174193784594536, 0.21808810532093048, 0.05298610031604767, 0.13331419229507446, -0.07355186343193054, -0.03207242116332054, 0.017216099426150322, 0.16902685165405273, -0.011815359815955162, 0.0009462916641496122, 8.815223554847762e-05, -0.0009724723058752716, -0.10514689981937408, 0.05077164247632027, -0.06330905109643936, 0.11143381893634796, 0.21023523807525635, 0.006779849529266357, -0.14918452501296997, -0.07873443514108658, 0.07370109111070633, -0.03795577585697174, 0.15577717125415802, 0.0623188316822052, 0.024395538493990898, 0.038004130125045776, 0.11707105487585068, 0.034441933035850525, -0.18496114015579224, -0.0009843305451795459, 0.016657225787639618, -0.052867691963911057, 0.12340255826711655, 0.29617539048194885, 0.08725740015506744, 0.18858438730239868, -0.23707878589630127, -0.07683125138282776, 0.1232524886727333, -0.039311766624450684, 0.03512004017829895, 0.15529212355613708, 0.09568202495574951, 0.06595651805400848, -0.017682243138551712, -0.012479284778237343, -0.011211208999156952, -0.1315726339817047, 0.15537478029727936, 0.04669557884335518, 0.09882476925849915, 0.2716510593891144, -0.04160425812005997, -0.12487644702196121, 0.07868991047143936, -0.05119788274168968, -0.07084314525127411, 0.1135074719786644, 0.18229667842388153, -0.12895280122756958, 0.07799575477838516, 0.15412184596061707, -0.015986278653144836, 0.026000628247857094, 0.32192638516426086, 0.098333440721035, 0.22418144345283508, 0.08924472332000732, 0.14206218719482422, 0.08428280055522919, 0.2013515830039978, 0.12577970325946808, -0.007614398840814829, 0.02087252214550972, -0.0032644160091876984, -0.026954257860779762, 0.2336713820695877, 0.04242950677871704, 0.045435257256031036, 0.1315530240535736, 0.15170446038246155, 0.013770908117294312, 0.08712141215801239, 0.10919289290904999, 0.024746306240558624, 0.16165831685066223, 0.05251818895339966, 0.016433248296380043, 0.0672348216176033, -0.006613795645534992, -0.008959992788732052, 0.045118384063243866, -0.033448971807956696, 0.16194267570972443, -0.005024932790547609, 0.26909491419792175, 0.10697748512029648, -0.017669949680566788, 0.020714659243822098, 0.05874624475836754, -0.026573145762085915, 0.09296192228794098, 0.0015960187884047627, -0.018621133640408516, 0.13083632290363312, 0.13430126011371613, 0.26702311635017395, 0.08745773136615753, 0.15430974960327148, -0.06314484030008316, 0.10254417359828949, 0.06598502397537231, -0.012909293174743652, -0.11991830915212631, 0.14479905366897583, 0.10542300343513489, -0.00853046029806137, 0.04840605705976486, -0.03982030600309372, 0.18217578530311584, 0.04168367758393288, -0.05745382606983185, 0.12824013829231262, -0.10775075107812881, -0.030091486871242523, 0.1284683644771576, -0.029927410185337067, 0.0981321856379509, 0.09572607278823853, 0.041881632059812546, 0.20590943098068237, 0.14622117578983307, 0.15150709450244904, 0.31737643480300903, 0.009180855005979538, 0.11587715148925781, 0.06516880542039871, 0.09065330028533936, 0.03887268155813217, 0.15390503406524658, 0.06397760659456253, 0.028452040627598763, 0.16797395050525665, 0.057252999395132065, 0.015148080885410309, 0.08280298113822937, 0.048391107469797134, 0.0628800094127655, 0.036463502794504166, -0.07195189595222473, 0.11786920577287674, -0.022695403546094894, 0.09250912815332413, -0.08760760724544525, -0.0032828717958182096, 0.006764979101717472, -0.031007124111056328, 0.0034304503351449966, -0.04832569137215614, -0.031590625643730164, 0.01854541338980198, 0.11109443008899689, 0.12040222436189651, -0.021571941673755646, -0.07052557170391083, 0.008393053896725178, -0.194124236702919, -0.06511907279491425, 0.10905016213655472, -0.1032632440328598, 0.10141024738550186, 0.15248849987983704, 0.04456588998436928, -0.06263798475265503, -0.007566929329186678, 0.09369514137506485, 0.08015075325965881, 0.130470409989357, -0.10330197960138321, 0.1516476422548294, -0.017193995416164398, -0.10589350014925003, 0.03241506218910217, 0.15477438271045685, -0.00983266532421112, -0.01949884183704853, 0.00861817691475153, -0.06771142780780792, 0.17134465277194977, -0.03660527616739273, 0.29674917459487915, 0.11619612574577332, 0.34628376364707947, 0.10220955312252045, 0.2171420156955719, 0.09601370245218277, 0.18483774363994598, 0.14189384877681732, 0.007319530937820673, 0.15566763281822205, 0.0462651289999485, 0.029173344373703003, 0.09357503056526184, 0.09695513546466827, 0.026432296261191368, 0.14640863239765167, -0.02734912745654583, 0.11833660304546356, 0.14642609655857086, 0.07746680825948715, 0.1875317096710205, 0.13539233803749084, -0.011330618523061275, 0.06547662615776062, -0.040875665843486786, -0.011372935958206654, -0.08781056106090546, 0.13072970509529114, -0.054803427308797836, -0.08813890069723129, -0.02307300828397274, 0.08663947880268097, -0.052109915763139725, -0.009217299520969391, 0.1277170032262802, -0.04724949598312378, 0.2039119154214859, 0.0030480960849672556, 0.008444132283329964, -0.017458990216255188, -0.11002134531736374, 0.07472066581249237, -0.05818505585193634, 0.13564744591712952, 0.01805613376200199], [0.15776586532592773, -0.06853707879781723, -0.110944464802742, -0.05593651533126831, -0.01673750951886177, 0.001914315507747233, 0.1022670716047287, 0.003168599447235465, -0.17298394441604614, 0.3680415451526642, 0.0005196933052502573, -0.0974498987197876, -0.01856817863881588, 0.07435580343008041, 0.06940452009439468, 0.06890269368886948, -0.06982019543647766, 0.035475682467222214, -0.129862979054451, -0.036679282784461975, -0.17598393559455872, 0.1660541296005249, 0.021790815517306328, -0.11605587601661682, 0.07503513246774673, -0.09356481581926346, 0.005313579924404621, 0.0013499095803126693, -0.0587875060737133, -0.035058654844760895, 0.005466435104608536, -0.013528106734156609, -0.07570597529411316, -0.10778000205755234, -0.03696546331048012, 0.06688101589679718, -0.012343835085630417, -0.001425927854143083, -0.017950478941202164, -0.036654032766819, -0.05608459189534187, 0.06546958535909653, 0.14296729862689972, -0.02241330035030842, 0.015165254473686218, 0.16011732816696167, 0.10366690903902054, -0.18094706535339355, 0.04353438317775726, -0.2628743052482605, -0.1518269181251526, 0.08542931079864502, 0.12948958575725555, 0.07940889149904251, 0.18677884340286255, 0.215791717171669, -0.03341090306639671, -0.048937179148197174, 0.09788275510072708, -0.0632026344537735, 0.3087972402572632, -0.11115110665559769, -0.07547402381896973, -0.011556281708180904, 0.06282274425029755, -0.22623211145401, -0.014522133395075798, 0.0019555704202502966, 0.19675399363040924, 0.009903108701109886, 0.09615367650985718, -0.17944884300231934, 0.29191720485687256, 0.12557289004325867, -0.12731003761291504, 0.14564462006092072, -0.08411294221878052, 0.10809191316366196, -0.014901509508490562, -0.024719052016735077, 0.057069793343544006, -0.06509557366371155, 0.02681625820696354, -0.03771592676639557, 0.11165114492177963, 0.05875418707728386, -0.10757140815258026, 0.014235664159059525, -0.11301057785749435, -0.01043143030256033, -0.05429506674408913, -0.05943284556269646, 0.02163201943039894, -0.0671616792678833, 0.0017433654284104705, -0.10670049488544464, -0.11381623148918152, -0.07074520736932755, 0.0013093628222122788, 0.06884901970624924, 0.05906739830970764, 0.055160582065582275, -0.2099289447069168, 0.19967709481716156, 0.1333017647266388, -0.03994690254330635, -0.2832418978214264, 0.003453535260632634, -0.00019120678189210594, 0.15900108218193054, -0.0190738458186388, 0.040750738233327866, 0.05795176699757576, 0.07070021331310272, -0.022256668657064438, -0.0189522672444582, 0.04150141775608063, 0.1868891566991806, 0.02493368647992611, -0.14016035199165344, -0.13519391417503357, 0.22529885172843933, 0.1205301582813263, 0.11561053991317749, 0.19554738700389862, -0.13395749032497406, -0.018914123997092247, 0.09200746566057205, -0.03230522572994232, 0.18183325231075287, -0.06266653537750244, 0.11209703981876373, -0.04619597643613815, 0.12757572531700134, -0.09009669721126556, 0.3029855191707611, 0.3363640308380127, 0.08448387682437897, 0.10279254615306854, -0.09979347139596939, -0.059100646525621414, 0.025554679334163666, -0.18527664244174957, -0.016758259385824203, -0.07187722623348236, 0.025170382112264633, 0.05332181975245476, -0.05437130108475685, 0.04572536051273346, -0.13863465189933777, 0.03347655013203621, 0.054111298173666, -0.09214454889297485, 0.13924625515937805, 0.11133851855993271, -0.011250646784901619, -0.09125779569149017, 0.02710982784628868, -0.008178764022886753, 0.012107054702937603, -0.07060964405536652, 0.045376647263765335, -0.10526718944311142, -0.16302083432674408, 0.012976331636309624, 0.03876623883843422, 0.024206697940826416, 0.11341927200555801, -0.10008908063173294, -0.1853174865245819, 0.07987824082374573, 0.09448252618312836, 0.1386214941740036, -0.03166653588414192, -0.07032998651266098, -0.06458872556686401, -0.005361713003367186, -0.05530804023146629, 0.11217189580202103, 0.01874527521431446, 0.16763511300086975, 0.14811719954013824, -0.019553186371922493, -0.10977671295404434, -0.08317006379365921, 0.13870449364185333, 0.10455915331840515, 0.1058264970779419, -0.023487815633416176, -0.19833120703697205, -0.0008725571096874774, -0.051411181688308716, 0.05467914789915085, 0.03371536359190941, -0.0914108008146286, 0.14063557982444763, 0.10861874371767044, -0.2810843586921692, 0.30857351422309875, 0.6912095546722412, 0.0878680944442749, 0.03510596603155136, 0.1426539123058319, 0.08835145086050034, -0.08275109529495239, -0.15634432435035706, 0.03084578365087509, 0.09710656851530075, -0.010815189220011234, 0.2392568290233612, 0.044619157910346985, -0.014097755774855614, 0.00035125092836096883, 0.0328875333070755, -0.02883930318057537, -0.08271656930446625, -0.020051900297403336, -0.0032037298660725355, -0.006827694829553366, -0.0554443784058094, -0.03316245973110199, 0.07512155920267105, -0.06408831477165222, 0.13262294232845306, -0.03593869134783745, 0.059051062911748886, -0.08416610956192017, -0.028355378657579422, 0.2423933744430542, 0.09451857954263687, -0.0014949488686397672, 0.26764506101608276, -0.1111060157418251, 0.022867731750011444, -0.08510131388902664, 0.058461181819438934, -0.08950354158878326, 0.1426973044872284, -0.20269377529621124, -0.01776781678199768, -0.05134954676032066, 0.03685135766863823, 0.04797179624438286, 0.1301126480102539, 0.19621078670024872, 0.1251446157693863, -0.0843329131603241, 0.20902331173419952, 0.17825818061828613, 0.03137374296784401, 0.1752694845199585, 0.0702877789735794], [-0.07432913780212402, 0.04364222660660744, -0.13038884103298187, 0.10905352979898453, 0.07040414959192276, 0.17758014798164368, -0.12628954648971558, 0.12711967527866364, -0.25116461515426636, -0.14116472005844116, 0.07464528828859329, -0.048357490450143814, 0.14444853365421295, -0.10918295383453369, -0.17041338980197906, -0.03492731228470802, -0.04721369221806526, -0.043623678386211395, 0.23266175389289856, 0.010353242978453636, -0.06722835451364517, -0.006635990459471941, 0.06600072979927063, 0.052015844732522964, -0.02048639766871929, -0.061438895761966705, -0.10605324059724808, -0.0478159636259079, 0.046207305043935776, -0.07705045491456985, -0.00562045956030488, -0.07674828916788101, -0.07026730477809906, -0.14864292740821838, -0.0818396806716919, -0.07087402790784836, 0.09346915036439896, -0.03942957893013954, 0.04841553792357445, 0.021062837913632393, 0.10412385314702988, -0.08995955437421799, 0.06673374772071838, 0.1108974739909172, 0.1031767874956131, 0.14903748035430908, 0.016502447426319122, 0.17378871142864227, 0.09410999715328217, 0.22464455664157867, -0.03861261159181595, -0.08939364552497864, -0.062305230647325516, -0.0034497349988669157, 0.7051441073417664, 0.5618796348571777, 0.03251095861196518, -0.07958580553531647, -0.04921267554163933, -0.1579296737909317, 0.061116646975278854, 0.3805801570415497, 0.12821021676063538, -0.06951108574867249, -0.10110227018594742, 0.042794544249773026, 0.07991179823875427, 0.011914854869246483, 0.3305268883705139, -0.02265056222677231, 0.049173515290021896, -0.12608350813388824, -0.08978354185819626, -0.23118461668491364, 0.08016151934862137, -0.009090777486562729, -0.12274174392223358, 0.018384654074907303, -0.09945227950811386, -0.027334613725543022, -0.08923936635255814, -0.10763034224510193, 0.07570859789848328, 0.11962844431400299, 0.00323886820115149, -0.0759468600153923, 0.07285191118717194, 0.09688721597194672, -0.059502992779016495, 0.034289926290512085, 0.014761257916688919, -0.07084883004426956, -0.02220161072909832, 0.039980992674827576, 0.0645180195569992, 0.15375648438930511, -0.25384342670440674, 0.14072540402412415, -0.12562550604343414, 0.058487217873334885, 0.11436914652585983, 0.04812423512339592, 0.10277508199214935, 0.1807200163602829, -0.04920430853962898, -0.06917688250541687, 0.0922248512506485, 0.09008292108774185, -0.0370170958340168, 0.03537662699818611, 0.15014883875846863, -0.013787535950541496, 0.023862851783633232, 0.11722467094659805, -0.06667982041835785, 0.10448356717824936, 0.16323283314704895, 0.48664742708206177, 0.4736016094684601, 0.08103656023740768, -0.2487393170595169, -0.3486887812614441, 0.08389980345964432, 0.21458415687084198, 0.5038259625434875, 0.04925720393657684, -0.07496760040521622, -0.03511488810181618, 0.1799973100423813, 0.018012873828411102, 0.11411698907613754, 0.12843702733516693, -0.04953047260642052, 0.005419377237558365, -0.10350784659385681, -0.15837807953357697, -0.08258211612701416, 0.0302140973508358, 0.07103320956230164, -0.12123136222362518, 0.05431629344820976, 0.08889608085155487, -0.28006163239479065, 0.08865180611610413, -0.17617806792259216, -0.11189709603786469, 0.058473072946071625, 0.029800990596413612, 0.09937319904565811, 0.07284915447235107, -0.022370627149939537, 0.054094523191452026, -0.08409328758716583, -0.1337115317583084, 0.029783179983496666, 0.05595656484365463, 0.1049896776676178, 0.07064907997846603, 0.021035566926002502, -0.013310937210917473, -0.0054313731379806995, -0.0033838844392448664, 0.044458311051130295, -0.07386822998523712, 0.027492456138134003, 0.007649190723896027, -0.012643787078559399, -0.007975410670042038, -0.012796010822057724, 0.2745605707168579, 0.1237901821732521, -0.052287228405475616, -0.11537966877222061, 0.020228268578648567, -0.04581362381577492, 0.05764470249414444, 0.09913851320743561, -0.17208407819271088, 0.21216021478176117, 0.07231581956148148, 0.6565262675285339, 0.6936525106430054, -0.010835228487849236, -0.24213293194770813, -0.27477627992630005, -0.07595596462488174, 0.031626779586076736, 0.2052077054977417, 0.054037053138017654, -0.2011493295431137, -0.013098622672259808, 0.03368702158331871, 0.07305968552827835, 0.06331902742385864, 0.037626828998327255, 0.0027024089358747005, 0.041798703372478485, -0.08280760049819946, -0.1213311031460762, -0.2922486364841461, -0.10354197025299072, 0.03929073363542557, -0.2686185836791992, -0.001959521323442459, -0.02828150987625122, -0.36092525720596313, 0.057197246700525284, -0.1365697681903839, -0.07732507586479187, -0.0020774020813405514, 0.13490030169487, 0.08163705468177795, 0.17507056891918182, -0.0544818639755249, -0.053622905164957047, -0.216920405626297, -0.17855875194072723, -0.14465460181236267, 0.09644613415002823, -0.033162765204906464, -0.011926588602364063, 0.011238292790949345, 0.08178502321243286, -0.16638495028018951, 0.06019999831914902, -0.008157122880220413, -0.19329388439655304, -0.056018706411123276, 0.14739231765270233, 0.037224236875772476, 0.012388206087052822, 0.0741095170378685, 0.2512718439102173, 0.183754101395607, 0.1286676824092865, 0.06217785179615021, 0.06725089997053146, -0.08749613165855408, 0.042418092489242554, 0.06540735810995102, -0.012603653594851494, 0.004282614216208458, 0.13745072484016418, 0.7196627855300903, 0.49825820326805115, 0.10749948769807816, -0.034725360572338104, -0.11945217847824097, -0.03410807251930237, 0.33383145928382874, 0.15957483649253845, 0.12338774651288986], [-0.15417733788490295, -0.044743895530700684, -0.03127610683441162, -0.042466163635253906, 0.1045151948928833, -0.03505632281303406, 0.10130336135625839, -0.18445222079753876, -0.06507236510515213, 0.002335732337087393, -0.18822984397411346, 0.16158688068389893, -0.0247290451079607, 0.19855709373950958, 0.07544787228107452, 0.07356591522693634, -0.17675912380218506, 0.16735854744911194, -0.03616342321038246, -0.0010550101287662983, 0.034866541624069214, 0.014879138208925724, 0.015549635514616966, 0.07832697778940201, -0.0634097158908844, -0.055814918130636215, -0.22761023044586182, -0.03906076028943062, 0.03186165541410446, -0.057272691279649734, 0.134963721036911, -0.002456161193549633, -0.0256879273802042, -0.017815079540014267, -0.19905366003513336, 0.06385330855846405, -0.04390602558851242, 0.11358767747879028, -0.01653187908232212, -0.031010014936327934, -0.008938382379710674, -0.09481428563594818, -0.22901380062103271, -0.08175074309110641, 0.14539368450641632, 0.009187350049614906, 0.32173773646354675, 0.2260107547044754, -0.1716841161251068, 0.09356160461902618, -0.09245384484529495, -0.06207549571990967, -0.03983340784907341, 0.030656617134809494, -0.006910510361194611, 0.12231539934873581, -0.14616534113883972, -0.2008649706840515, -0.08680272847414017, -0.10546166449785233, -0.06489717960357666, -0.020356768742203712, -0.08975188434123993, -0.1898549497127533, 0.001265080296434462, -0.045625388622283936, 0.0014485664432868361, 0.1138380765914917, -0.0476362518966198, -0.007248766254633665, 0.07380522042512894, -0.3947652280330658, 0.24761982262134552, -0.2777843773365021, -0.14977259933948517, 0.09652610868215561, 0.1545475870370865, 0.01668776199221611, -0.14347001910209656, -0.14801353216171265, 0.00940028578042984, 0.010831956751644611, -0.0020543113350868225, 0.06220387667417526, 0.14595305919647217, -0.08038829267024994, -0.045888304710388184, 0.007775797974318266, 0.03850685432553291, -0.09137459844350815, -0.05586181953549385, 0.04224469140172005, -0.12115715444087982, 0.07846058905124664, -0.13659702241420746, -0.027771374210715294, -0.03282048553228378, 0.1027153804898262, 0.011593437753617764, 0.002078042831271887, 0.040540266782045364, -0.14462505280971527, -0.12919080257415771, -0.1637539565563202, -0.14578357338905334, -0.24731560051441193, 0.07053978741168976, 0.09945207089185715, 0.009131752885878086, 0.1230267658829689, 0.14280788600444794, -0.14506857097148895, 0.09455274790525436, -0.17781943082809448, -0.10363423824310303, -0.1450449526309967, -0.0670342668890953, 0.05330272018909454, -0.012151822447776794, -0.144256129860878, -0.036292243748903275, -0.07470054924488068, 0.007661099545657635, -0.19916197657585144, 0.0014696393627673388, 0.04031980782747269, -0.015584255568683147, -0.12572766840457916, 0.07516149431467056, -0.06615856289863586, 0.20267528295516968, -0.01546853594481945, 0.10353653132915497, -0.07207129150629044, -0.21745501458644867, 0.12816870212554932, -0.2286086529493332, 0.016817133873701096, 0.0597524456679821, 0.15003111958503723, -0.04732406884431839, -0.1558263599872589, -0.07565324008464813, 0.03602660447359085, -0.0838436484336853, 0.0869135782122612, -0.14258959889411926, -0.05841708183288574, -0.04949793592095375, 0.0630505383014679, 0.06661640852689743, -0.02653532475233078, -0.09725308418273926, 0.03811122849583626, 0.10823030769824982, -0.10015016794204712, -0.05596150830388069, -0.17063069343566895, -0.07894773781299591, 0.015822773799300194, -0.020335817709565163, -0.25405797362327576, -0.06918016076087952, -0.06278370320796967, 0.08694982528686523, 0.19139359891414642, -0.2082023173570633, -0.1451772153377533, 0.17808644473552704, 0.04218481108546257, 0.009400401264429092, 0.021548910066485405, 0.12268489599227905, 0.25222375988960266, -0.15126247704029083, 0.02640625648200512, -0.07952181249856949, -0.1161586120724678, -0.08947446197271347, -0.07362696528434753, -0.0029538972303271294, 0.010897032916545868, -0.1437443196773529, -0.1911918818950653, -0.029238266870379448, -0.13633133471012115, -0.11923573166131973, -0.16066288948059082, 0.06322473287582397, 0.12052340805530548, -0.08768881857395172, 0.0720168873667717, -0.16854572296142578, 0.07952471822500229, -0.011801633983850479, 0.07475131005048752, 0.006741365417838097, -0.2109411656856537, 0.025249626487493515, -0.2592039406299591, -0.0774170458316803, 0.2240365445613861, 0.07678990066051483, 0.16091355681419373, 0.026210594922304153, -0.03552601486444473, 0.14789482951164246, -0.14424240589141846, -0.015809377655386925, 0.060535747557878494, -0.19413936138153076, -0.09677991271018982, -0.03360495716333389, -0.1254839450120926, -0.028808819130063057, -0.11498627066612244, -0.09037131816148758, -0.0793725773692131, -4.162073309998959e-05, 0.01304937805980444, -0.14120131731033325, -0.12250306457281113, -0.03383563086390495, 0.024020662531256676, -0.13413314521312714, 0.042352452874183655, -0.19656170904636383, -0.021810883656144142, -0.02567812241613865, -0.06905120611190796, -0.07174903899431229, -0.011856839060783386, 0.06588858366012573, 0.18992966413497925, 0.0410618931055069, 0.30032145977020264, 0.11436422914266586, -0.19914239645004272, 0.07934145629405975, -0.07479925453662872, -0.1654406636953354, 0.03882276266813278, 0.08848685026168823, 0.03303173556923866, 0.16072866320610046, -0.112818144261837, -0.07486347109079361, 0.03541802242398262, 0.039220936596393585, -0.22659768164157867, 0.024459751322865486, -0.18986357748508453], [-0.05928793549537659, -0.07513248175382614, -0.18971607089042664, 0.23141203820705414, 0.09239955246448517, 0.04996532201766968, 0.004152047913521528, -0.05261100083589554, -0.03549373149871826, 0.14286696910858154, -0.1241302639245987, -0.09100067615509033, -0.07621358335018158, -0.0010777624556794763, -0.0671268105506897, -0.06915464997291565, -0.033244725316762924, -0.028463071212172508, 0.05734553560614586, 0.25961318612098694, 0.03511770814657211, 0.052977923303842545, 0.048517365008592606, 0.038137972354888916, -0.0370611771941185, -0.030240539461374283, -0.1637706309556961, -0.024410242214798927, -0.1030658408999443, -0.10853887349367142, -0.008567936718463898, 0.007616973482072353, -0.13662061095237732, -0.024854447692632675, 0.035532187670469284, 0.04240480810403824, 0.028087809681892395, 0.004918443039059639, 0.04003484174609184, -0.017061443999409676, -0.18226975202560425, -0.22531411051750183, 0.04235367104411125, 0.11904113739728928, 0.15185266733169556, 0.00044399715261533856, 0.06825963407754898, -0.11029147356748581, -0.011312630027532578, -0.016578640788793564, -0.1419185996055603, -0.0888826921582222, -0.007069841958582401, -0.08301928639411926, 0.1531442552804947, 0.2232082188129425, -0.060198623687028885, -0.03476709499955177, 0.05545322969555855, 0.20469479262828827, 0.001231483300216496, 0.27394282817840576, 0.19871066510677338, -0.03223371505737305, -0.07009477913379669, -0.2645147442817688, 0.0033503358718007803, 0.11312182247638702, -0.026834331452846527, 0.017312832176685333, 0.04091043770313263, -0.032194528728723526, 0.28235599398612976, -0.05819547548890114, -0.09682510793209076, 0.19196270406246185, 0.07423431426286697, -0.021112054586410522, 0.06280689686536789, 0.010562768206000328, 0.009124773554503918, -0.21605272591114044, -0.04134546220302582, -0.04558464512228966, 0.12606994807720184, 0.1453334391117096, -0.01986880600452423, -0.12822268903255463, -0.031059376895427704, 0.01988176628947258, -0.11426372826099396, -0.00933416560292244, -0.04034693166613579, -0.10605889558792114, 0.11786653846502304, -0.057669758796691895, -0.19882681965827942, 0.11048974841833115, 0.06268635392189026, -0.05346105620265007, 0.10571351647377014, -0.06362387537956238, 0.14280469715595245, -0.09230048954486847, -0.054851189255714417, -0.09497780352830887, -0.049017999321222305, -0.04081622511148453, -0.09490324556827545, -0.11474546045064926, 0.03517995774745941, 0.13512027263641357, 0.006841088645160198, -0.14820222556591034, 0.027065936475992203, 0.016352033242583275, -0.0675504207611084, 0.18957872688770294, 0.1831994652748108, -0.01936943642795086, -0.01846988871693611, 0.19529028236865997, 0.161823570728302, 0.11890583485364914, 0.10633846372365952, 0.11016256362199783, -0.004675844684243202, -0.001891459571197629, -0.2234303504228592, -0.03633712977170944, -0.03607773035764694, 0.18842247128486633, 0.07287696748971939, 0.1425328105688095, -0.08329004049301147, 0.18287068605422974, -0.004330344498157501, -0.010129760019481182, 0.015857821330428123, 0.19349852204322815, -0.11566754430532455, 0.08507617563009262, -0.07121698558330536, 0.11269154399633408, -0.1695132702589035, -0.025907475501298904, -0.13917313516139984, 0.19270414113998413, 0.13610374927520752, -0.009115022607147694, 0.021870197728276253, -0.003948370926082134, -0.13803531229496002, -0.14427872002124786, -0.031258970499038696, -0.19259153306484222, 0.026045870035886765, 0.029203910380601883, -0.016440626233816147, 0.014096325263381004, 0.1023348718881607, -0.07291547954082489, 0.1344301849603653, 0.009589055553078651, 0.03697533905506134, -0.01830301433801651, -0.09090031683444977, -0.11458534002304077, -0.014794544316828251, -0.08324315398931503, 0.037550460547208786, 0.19402164220809937, 0.071431465446949, 0.06258533149957657, 0.21254923939704895, 0.10176871716976166, -0.10213975608348846, -0.05484303459525108, 0.10501818358898163, 0.03313015401363373, 0.16861723363399506, 0.2882680296897888, 0.0670904591679573, 0.1606217473745346, 0.24353614449501038, 0.12241385132074356, 0.16820834577083588, 0.2562748193740845, 0.13972482085227966, -0.034092843532562256, 0.11252538859844208, -0.051787495613098145, 0.2570047676563263, 0.09355214983224869, -0.027271751314401627, -0.049276772886514664, 0.16359812021255493, -0.10118407756090164, 0.26285821199417114, 0.08028540760278702, -0.06710346043109894, 0.08600851893424988, 0.24420662224292755, -0.07782275229692459, -0.2654902935028076, 0.038520097732543945, -0.19893774390220642, 0.09284450858831406, 0.02938547357916832, 0.22835581004619598, -0.054210662841796875, 0.04397222027182579, -0.21930155158042908, -0.1354532092809677, -0.17582055926322937, -0.11676067113876343, -0.18324844539165497, 0.005612315610051155, 0.05616292729973793, 0.04462862014770508, 0.0838598981499672, -0.054316043853759766, -0.04768632724881172, 0.03809612989425659, 0.1536199003458023, 0.008179361931979656, 0.22778163850307465, 0.20072311162948608, -0.09608709812164307, 0.03325716406106949, -0.10837113857269287, -0.17540566623210907, -0.07801074534654617, 0.048050060868263245, 0.05817218869924545, -0.023821163922548294, -0.21215228736400604, 0.05992407724261284, 0.0750269740819931, -0.09952078014612198, 0.04059615358710289, -0.10344082862138748, 0.059482891112565994, 0.17396937310695648, 0.23517709970474243, 0.24919159710407257, 0.1868268847465515, 0.36322513222694397, 0.09601681679487228, 0.07661474496126175, 0.06810060888528824, 0.05426362156867981], [0.19535861909389496, 0.17828749120235443, -0.041231419891119, -0.04948006197810173, 0.054017893970012665, 0.016459902748465538, -0.031110750511288643, -0.022317830473184586, -0.006477825343608856, 0.27501413226127625, 0.09772338718175888, -0.03314287215471268, 0.08484657108783722, 0.2576906681060791, 0.18029965460300446, -0.02155843935906887, 0.19448930025100708, -0.03463263809680939, -0.002238107845187187, 0.07063119113445282, 0.08049367368221283, -0.021287759765982628, 0.04123092442750931, -0.013433529995381832, 0.11176998913288116, 0.049202725291252136, -0.013413296081125736, 0.006707000080496073, -0.07601898163557053, -0.07749514281749725, -0.061186835169792175, 0.028593001887202263, 0.08959830552339554, -0.010285662487149239, -0.001707649789750576, -0.026374375447630882, -0.019895896315574646, 0.00867843721061945, -0.022760627791285515, 0.03356603905558586, -0.0838698223233223, -0.053598035126924515, 0.026971129700541496, -0.31284746527671814, -0.15421243011951447, -0.2891993820667267, 0.1775387078523636, 0.008769623003900051, -0.1052723228931427, 0.029563438147306442, -0.080147884786129, -0.0892520546913147, -0.0925278589129448, 0.2082577496767044, -0.15641188621520996, -0.22556526958942413, -0.21467077732086182, 0.08873184025287628, 0.20603793859481812, 0.1964646428823471, 0.1391068696975708, -0.18274398148059845, -0.03869592398405075, 0.05892341583967209, 0.0034452953841537237, 0.03795881196856499, -0.07850214093923569, 0.05487788841128349, 0.10706230252981186, 0.17113886773586273, 0.14954282343387604, 0.05240169167518616, 0.08015966415405273, 0.1888016313314438, -0.04153429716825485, 0.06635972857475281, 0.14079298079013824, -0.003558643162250519, -0.06491746753454208, 0.05266779288649559, -0.0636114776134491, -0.0014215537812560797, -0.055315230041742325, 0.24793969094753265, 0.14586453139781952, 0.03872518613934517, 0.06032993271946907, 0.06972910463809967, 0.007093619089573622, 